net
{
     node_size = (0 0);
     name = "learned net";
     tree = "(Direction,Weather,DayOfWeek,TimeOfDay,IncidentDownstream,IncidentOnLink,IncidentUpstream,Workzone,RampMetering,Flow,Speed,Occupancy)";
     UnBBayes_Color_Probabilistic_Description = "-256";
     UnBBayes_Color_Probabilistic_Explanation = "-16711936";
}

node Direction
{
     label = "Direction";
     position = (0 0);
     states = ("1.0" "3.0" "4.0" "2.0");
}

node Weather
{
     label = "Weather";
     position = (790 0);
     states = ("1.0" "2.0" "5.0" "8.0" "3.0" "10.0" "11.0" "12.0" "4.0");
}

node DayOfWeek
{
     label = "DayOfWeek";
     position = (259 0);
     states = ("1.0" "2.0");
}

node TimeOfDay
{
     label = "TimeOfDay";
     position = (518 0);
     states = ("5.0" "1.0" "2.0" "3.0" "4.0");
}

node IncidentDownstream
{
     label = "IncidentDownstream";
     position = (0 204);
     states = ("0.0" "1.0");
}

node IncidentOnLink
{
     label = "IncidentOnLink";
     position = (233 206);
     states = ("0.0" "1.0");
}

node IncidentUpstream
{
     label = "IncidentUpstream";
     position = (465 207);
     states = ("0.0" "1.0");
}

node Workzone
{
     label = "Workzone";
     position = (699 208);
     states = ("0.0" "1.0");
}

node RampMetering
{
     label = "RampMetering";
     position = (931 210);
     states = ("0.0");
}

node Flow
{
     label = "Flow";
     position = (25 355);
     states = ("1.0" "2.0" "3.0" "4.0");
}

node Speed
{
     label = "Speed";
     position = (383 357);
     states = ("4.0" "5.0" "3.0" "2.0" "1.0");
}

node Occupancy
{
     label = "Occupancy";
     position = (753 372);
     states = ("1.0" "2.0" "3.0" "4.0");
}

potential (Direction)
{
 data = ( 0.34030965 0.32737672 0.14745495 0.18485866 );
}

potential (Weather)
{
 data = ( 0.79453707 0.15790689 0.014728674 0.0035550375 4.997335E-4 0.028086636 3.885179E-4 2.448877E-4 5.2483192E-5 );
}

potential (DayOfWeek)
{
 data = ( 0.2821272 0.7178728 );
}

potential (TimeOfDay)
{
 data = ( 0.20935634 0.2031332 0.16736077 0.2541278 0.16602196 );
}

potential (IncidentDownstream | TimeOfDay DayOfWeek Weather Direction)
{
 data = ((((( 0.9991887 8.1128307E-4 )
( 0.9994388 5.6119997E-4 )
( 0.99985266 1.4735395E-4 )
( 0.99943644 5.635471E-4 ))
(( 0.99988985 1.1015844E-4 )
( 0.9999815 1.8476774E-5 )
( 0.99920166 7.983324E-4 )
( 0.9992919 7.080899E-4 ))
(( 0.9998687 1.3130253E-4 )
( 0.9996238 3.762227E-4 )
( 0.99968314 3.1685678E-4 )
( 0.99974936 2.5062656E-4 ))
(( 0.99945027 5.497526E-4 )
( 0.9993675 6.3251104E-4 )
( 0.9985141 0.0014858841 )
( 0.99883854 0.0011614402 ))
(( 0.5 0.5 )
( 0.5 0.5 )
( 0.5 0.5 )
( 0.5 0.5 ))
(( 0.9987263 0.0012736691 )
( 0.99715316 0.002846856 )
( 0.999774 2.2603979E-4 )
( 0.9987872 0.0012127513 ))
(( 0.9983687 0.0016313214 )
( 0.9986111 0.0013888889 )
( 0.9951456 0.004854369 )
( 0.99604744 0.0039525693 ))
(( 0.97628456 0.023715414 )
( 0.9941176 0.005882353 )
( 0.9883721 0.011627907 )
( 0.9909091 0.009090909 ))
(( 0.5 0.5 )
( 0.5 0.5 )
( 0.5 0.5 )
( 0.5 0.5 )))
((( 0.99915534 8.446809E-4 )
( 0.9990718 9.282096E-4 )
( 0.99944544 5.545608E-4 )
( 0.9998295 1.7051678E-4 ))
(( 0.9987912 0.0012088013 )
( 0.99918425 8.157253E-4 )
( 0.9992106 7.894254E-4 )
( 0.9997964 2.0361859E-4 ))
(( 0.9977581 0.0022418809 )
( 0.9970252 0.0029748133 )
( 0.9975852 0.002414811 )
( 0.9998929 1.071352E-4 ))
(( 0.9998167 1.8328446E-4 )
( 0.99981344 1.8656717E-4 )
( 0.9987411 0.0012589174 )
( 0.99965024 3.4977266E-4 ))
(( 0.9936709 0.006329114 )
( 0.99509805 0.004901961 )
( 0.9897959 0.010204081 )
( 0.9883721 0.011627907 ))
(( 0.99674755 0.003252466 )
( 0.9985746 0.0014253604 )
( 0.99926454 7.354744E-4 )
( 0.9991432 8.568165E-4 ))
(( 0.9987469 0.0012531328 )
( 0.98849374 0.011506276 )
( 0.99583334 0.004166667 )
( 0.99421966 0.0057803467 ))
(( 0.5 0.5 )
( 0.5 0.5 )
( 0.5 0.5 )
( 0.5 0.5 ))
(( 0.5 0.5 )
( 0.5 0.5 )
( 0.5 0.5 )
( 0.5 0.5 ))))
(((( 0.99968886 3.111596E-4 )
( 0.9992197 7.802628E-4 )
( 0.9999851 1.4928715E-5 )
( 0.9997373 2.6264938E-4 ))
(( 0.99967885 3.211521E-4 )
( 0.99967825 3.2173397E-4 )
( 0.99941903 5.8096106E-4 )
( 0.9997958 2.0418581E-4 ))
(( 0.99972713 2.728513E-4 )
( 0.9996955 3.045067E-4 )
( 0.9994114 5.885815E-4 )
( 0.9995183 4.8169558E-4 ))
(( 0.999693 3.07031E-4 )
( 0.9997014 2.985966E-4 )
( 0.9992453 7.54717E-4 )
( 0.99934936 6.506181E-4 ))
(( 0.9946808 0.005319149 )
( 0.9962121 0.003787879 )
( 0.98 0.02 )
( 0.9880952 0.011904762 ))
(( 0.9999324 6.759954E-5 )
( 0.9995265 4.7348486E-4 )
( 0.99985576 1.442585E-4 )
( 0.99950665 4.933399E-4 ))
(( 0.5 0.5 )
( 0.5 0.5 )
( 0.5 0.5 )
( 0.5 0.5 ))
(( 0.5 0.5 )
( 0.5 0.5 )
( 0.9285714 0.071428575 )
( 0.5 0.5 ))
(( 0.5 0.5 )
( 0.5 0.5 )
( 0.5 0.5 )
( 0.5 0.5 )))
((( 0.9995769 4.2305022E-4 )
( 0.9997223 2.7768846E-4 )
( 0.9997843 2.157032E-4 )
( 0.9998861 1.1387563E-4 ))
(( 0.9998916 1.0844149E-4 )
( 0.99950284 4.9718027E-4 )
( 0.999968 3.1983625E-5 )
( 0.9999869 1.31216375E-5 ))
(( 0.99937135 6.2865403E-4 )
( 0.9999352 6.476684E-5 )
( 0.9998443 1.5569049E-4 )
( 0.9998746 1.2539185E-4 ))
(( 0.99983716 1.6286645E-4 )
( 0.9995064 4.9358344E-4 )
( 0.9986807 0.0013192613 )
( 0.99971527 2.8473805E-4 ))
(( 0.5 0.5 )
( 0.5 0.5 )
( 0.5 0.5 )
( 0.5 0.5 ))
(( 0.9998085 1.9150974E-4 )
( 0.9991223 8.7767775E-4 )
( 0.9998483 1.5171054E-4 )
( 0.9997561 2.4391731E-4 ))
(( 0.99308985 0.0069101676 )
( 0.9991095 8.90472E-4 )
( 0.98511904 0.014880952 )
( 0.9976526 0.0023474179 ))
(( 0.99813783 0.0018621974 )
( 0.9981785 0.0018214936 )
( 0.99006623 0.009933775 )
( 0.997191 0.0028089888 ))
(( 0.5 0.5 )
( 0.5 0.5 )
( 0.5 0.5 )
( 0.5 0.5 ))))
(((( 0.99977905 2.2094278E-4 )
( 0.998717 0.0012830165 )
( 0.9993025 6.974784E-4 )
( 0.9998829 1.1709419E-4 ))
(( 0.99939317 6.068473E-4 )
( 0.999389 6.11035E-4 )
( 0.9979727 0.0020272601 )
( 0.9999659 3.4077355E-5 ))
(( 0.9998295 1.7050299E-4 )
( 0.99889463 0.0011053795 )
( 0.9996453 3.5473573E-4 )
( 0.9997119 2.881014E-4 ))
(( 0.9992852 7.147963E-4 )
( 0.99923664 7.633588E-4 )
( 0.9986376 0.0013623978 )
( 0.99888146 0.0011185682 ))
(( 0.9984686 0.0015313936 )
( 0.99840254 0.0015974441 )
( 0.9954128 0.0045871558 )
( 0.9966887 0.0033112583 ))
(( 0.9988156 0.0011843956 )
( 0.99992573 7.4266616E-5 )
( 0.99984705 1.5292858E-4 )
( 0.9998745 1.25502E-4 ))
(( 0.5 0.5 )
( 0.5 0.5 )
( 0.5 0.5 )
( 0.5 0.5 ))
(( 0.9950739 0.0049261083 )
( 0.9918699 0.008130081 )
( 0.9918033 0.008196721 )
( 0.9941176 0.005882353 ))
(( 0.5 0.5 )
( 0.5 0.5 )
( 0.5 0.5 )
( 0.5 0.5 )))
((( 0.99866945 0.0013305796 )
( 0.99736714 0.0026328266 )
( 0.99923 7.699582E-4 )
( 0.9995183 4.8169697E-4 ))
(( 0.9987299 0.0012701129 )
( 0.9966445 0.0033554921 )
( 0.9990798 9.2015974E-4 )
( 0.9995153 4.8470005E-4 ))
(( 0.9962308 0.0037692308 )
( 0.99814457 0.001855444 )
( 0.99915856 8.414675E-4 )
( 0.996919 0.0030810449 ))
(( 0.9996314 3.6859565E-4 )
( 0.99927694 7.230658E-4 )
( 0.9988453 0.0011547344 )
( 0.9992145 7.8554597E-4 ))
(( 0.9993132 6.868132E-4 )
( 0.99929076 7.0921984E-4 )
( 0.9986807 0.0013192613 )
( 0.9988827 0.0011173184 ))
(( 0.9975486 0.0024514426 )
( 0.9968926 0.0031074283 )
( 0.99779344 0.0022065777 )
( 0.9996733 3.266906E-4 ))
(( 0.5 0.5 )
( 0.5 0.5 )
( 0.5 0.5 )
( 0.5 0.5 ))
(( 0.9982759 0.0017241379 )
( 0.9979757 0.0020242915 )
( 0.9457143 0.054285713 )
( 0.99769586 0.0023041475 ))
(( 0.99655175 0.0034482758 )
( 0.99723756 0.002762431 )
( 0.99450547 0.0054945056 )
( 0.9948454 0.005154639 ))))
(((( 0.9993383 6.6165556E-4 )
( 0.9991156 8.8441354E-4 )
( 0.9996593 3.4068647E-4 )
( 0.9992792 7.2082254E-4 ))
(( 0.9994843 5.1569956E-4 )
( 0.999096 9.0405013E-4 )
( 0.9992241 7.758844E-4 )
( 0.99963754 3.6243376E-4 ))
(( 0.999782 2.179599E-4 )
( 0.999758 2.4201356E-4 )
( 0.9966809 0.0033191086 )
( 0.99960554 3.944773E-4 ))
(( 0.9970414 0.00295858 )
( 0.99787235 0.0021276595 )
( 0.9925373 0.0074626864 )
( 0.9936709 0.006329114 ))
(( 0.9941176 0.005882353 )
( 0.996063 0.003937008 )
( 0.98 0.02 )
( 0.9883721 0.011627907 ))
(( 0.99959314 4.068624E-4 )
( 0.99993056 6.942034E-5 )
( 0.9998504 1.49611E-4 )
( 0.99939215 6.0782884E-4 ))
(( 0.5 0.5 )
( 0.5 0.5 )
( 0.5 0.5 )
( 0.5 0.5 ))
(( 0.5 0.5 )
( 0.5 0.5 )
( 0.5 0.5 )
( 0.5 0.5 ))
(( 0.5 0.5 )
( 0.5 0.5 )
( 0.5 0.5 )
( 0.5 0.5 )))
((( 0.99872166 0.0012783689 )
( 0.9985079 0.0014921081 )
( 0.9992292 7.708022E-4 )
( 0.9995863 4.1372687E-4 ))
(( 0.99881524 0.0011847782 )
( 0.99851865 0.0014813254 )
( 0.9991036 8.9641433E-4 )
( 0.9995624 4.3764102E-4 ))
(( 0.99813366 0.0018663348 )
( 0.9988066 0.001193427 )
( 0.9997825 2.1748587E-4 )
( 0.9996577 3.4228992E-4 ))
(( 0.99622285 0.0037771482 )
( 0.99897224 0.0010277493 )
( 0.9978166 0.0021834061 )
( 0.9983051 0.0016949152 ))
(( 0.99834436 0.0016556291 )
( 0.99850523 0.0014947683 )
( 0.996063 0.003937008 )
( 0.99710983 0.0028901733 ))
(( 0.997808 0.002192021 )
( 0.997457 0.0025429674 )
( 0.9998864 1.13597634E-4 )
( 0.99963903 3.6096197E-4 ))
(( 0.996124 0.003875969 )
( 0.9948454 0.005154639 )
( 0.9883721 0.011627907 )
( 0.9909091 0.009090909 ))
(( 0.5 0.5 )
( 0.5 0.5 )
( 0.5 0.5 )
( 0.5 0.5 ))
(( 0.5 0.5 )
( 0.5 0.5 )
( 0.9285714 0.071428575 )
( 0.5 0.5 ))))
(((( 0.9991151 8.84905E-4 )
( 0.99838656 0.0016134374 )
( 0.99990654 9.3482406E-5 )
( 0.99951255 4.8745368E-4 ))
(( 0.99847645 0.001523532 )
( 0.9989738 0.0010262023 )
( 0.99995947 4.0551502E-5 )
( 0.9996487 3.512918E-4 ))
(( 0.9977057 0.0022943297 )
( 0.99828887 0.0017111567 )
( 0.9991694 8.3056476E-4 )
( 0.9993395 6.60502E-4 ))
(( 0.5 0.5 )
( 0.5 0.5 )
( 0.5 0.5 )
( 0.5 0.5 ))
(( 0.5 0.5 )
( 0.5 0.5 )
( 0.5 0.5 )
( 0.5 0.5 ))
(( 0.9989354 0.0010645848 )
( 0.9997646 2.3540489E-4 )
( 0.9997242 2.7578598E-4 )
( 0.99910915 8.908686E-4 ))
(( 0.5 0.5 )
( 0.5 0.5 )
( 0.5 0.5 )
( 0.5 0.5 ))
(( 0.5 0.5 )
( 0.5 0.5 )
( 0.5 0.5 )
( 0.5 0.5 ))
(( 0.5 0.5 )
( 0.5 0.5 )
( 0.5 0.5 )
( 0.5 0.5 )))
((( 0.99687606 0.0031239418 )
( 0.9982079 0.0017920969 )
( 0.9996303 3.69709E-4 )
( 0.9995433 4.566791E-4 ))
(( 0.99705553 0.0029444871 )
( 0.9982064 0.0017935961 )
( 0.99968624 3.1376924E-4 )
( 0.9989962 0.0010038089 ))
(( 0.9981745 0.0018255241 )
( 0.99796903 0.002030942 )
( 0.9994667 5.332622E-4 )
( 0.9996857 3.1430068E-4 ))
(( 0.99935025 6.497726E-4 )
( 0.99944043 5.595971E-4 )
( 0.99837136 0.0016286644 )
( 0.9986595 0.0013404826 ))
(( 0.5 0.5 )
( 0.5 0.5 )
( 0.5 0.5 )
( 0.5 0.5 ))
(( 0.9943121 0.0056878775 )
( 0.9993178 6.8217993E-4 )
( 0.9998546 1.453911E-4 )
( 0.99964947 3.5050823E-4 ))
(( 0.5 0.5 )
( 0.5 0.5 )
( 0.5 0.5 )
( 0.5 0.5 ))
(( 0.5 0.5 )
( 0.5 0.5 )
( 0.5 0.5 )
( 0.5 0.5 ))
(( 0.5 0.5 )
( 0.5 0.5 )
( 0.5 0.5 )
( 0.5 0.5 )))));
}

potential (IncidentOnLink | TimeOfDay DayOfWeek Weather Direction)
{
 data = ((((( 0.999326 6.73989E-4 )
( 0.99947774 5.2227284E-4 )
( 0.9998386 1.6138765E-4 )
( 0.99941367 5.8631663E-4 ))
(( 0.99966955 3.3047533E-4 )
( 0.9999815 1.8476774E-5 )
( 0.9996895 3.1046258E-4 )
( 0.9992919 7.080899E-4 ))
(( 0.9998687 1.3130253E-4 )
( 0.99899673 0.0010032606 )
( 0.99873257 0.0012674271 )
( 0.99974936 2.5062656E-4 ))
(( 0.99945027 5.497526E-4 )
( 0.9993675 6.3251104E-4 )
( 0.9791976 0.020802377 )
( 0.99883854 0.0011614402 ))
(( 0.5 0.5 )
( 0.5 0.5 )
( 0.5 0.5 )
( 0.5 0.5 ))
(( 0.99991506 8.491127E-5 )
( 0.99439 0.005609981 )
( 0.999774 2.2603979E-4 )
( 0.9987872 0.0012127513 ))
(( 0.9983687 0.0016313214 )
( 0.9986111 0.0013888889 )
( 0.9951456 0.004854369 )
( 0.99604744 0.0039525693 ))
(( 0.99604744 0.0039525693 )
( 0.9941176 0.005882353 )
( 0.9883721 0.011627907 )
( 0.9909091 0.009090909 ))
(( 0.5 0.5 )
( 0.5 0.5 )
( 0.5 0.5 )
( 0.5 0.5 )))
((( 0.9992286 7.713871E-4 )
( 0.9993661 6.338993E-4 )
( 0.9997048 2.9521395E-4 )
( 0.9996043 3.9568637E-4 ))
(( 0.99915844 8.4157055E-4 )
( 0.99935853 6.414927E-4 )
( 0.9993391 6.609143E-4 )
( 0.9997237 2.7633953E-4 ))
(( 0.999697 3.0295685E-4 )
( 0.9970913 0.0029087062 )
( 0.9994634 5.3662463E-4 )
( 0.9998929 1.071352E-4 ))
(( 0.9998167 1.8328446E-4 )
( 0.99981344 1.8656717E-4 )
( 0.9995804 4.196391E-4 )
( 0.99965024 3.4977266E-4 ))
(( 0.9936709 0.006329114 )
( 0.99509805 0.004901961 )
( 0.9897959 0.010204081 )
( 0.9883721 0.011627907 ))
(( 0.99840045 0.0015995734 )
( 0.9992873 7.126802E-4 )
( 0.9988968 0.0011032115 )
( 0.9999048 9.520183E-5 ))
(( 0.99122804 0.00877193 )
( 0.998954 0.0010460251 )
( 0.95416665 0.045833334 )
( 0.99710983 0.0028901733 ))
(( 0.5 0.5 )
( 0.5 0.5 )
( 0.5 0.5 )
( 0.5 0.5 ))
(( 0.5 0.5 )
( 0.5 0.5 )
( 0.5 0.5 )
( 0.5 0.5 ))))
(((( 0.9998227 1.7732751E-4 )
( 0.99931294 6.8704557E-4 )
( 0.99958944 4.1053968E-4 )
( 0.9999062 9.380335E-5 ))
(( 0.99976337 2.3663839E-4 )
( 0.99981374 1.8626703E-4 )
( 0.9999585 4.149722E-5 )
( 0.9996257 3.7434066E-4 ))
(( 0.99972713 2.728513E-4 )
( 0.9996955 3.045067E-4 )
( 0.9994114 5.885815E-4 )
( 0.9995183 4.8169558E-4 ))
(( 0.999693 3.07031E-4 )
( 0.9997014 2.985966E-4 )
( 0.9992453 7.54717E-4 )
( 0.99934936 6.506181E-4 ))
(( 0.9946808 0.005319149 )
( 0.9962121 0.003787879 )
( 0.98 0.02 )
( 0.9880952 0.011904762 ))
(( 0.9999324 6.759954E-5 )
( 0.99878246 0.0012175324 )
( 0.99985576 1.442585E-4 )
( 0.9991366 8.633448E-4 ))
(( 0.5 0.5 )
( 0.5 0.5 )
( 0.5 0.5 )
( 0.5 0.5 ))
(( 0.5 0.5 )
( 0.5 0.5 )
( 0.9285714 0.071428575 )
( 0.5 0.5 ))
(( 0.5 0.5 )
( 0.5 0.5 )
( 0.5 0.5 )
( 0.5 0.5 )))
((( 0.99965745 3.4253008E-4 )
( 0.9996426 3.5740764E-4 )
( 0.9999242 7.578761E-5 )
( 0.9997868 2.1321393E-4 ))
(( 0.99995255 4.7443154E-5 )
( 0.999446 5.540009E-4 )
( 0.99992007 7.995906E-5 )
( 0.9999869 1.31216375E-5 ))
(( 0.99949706 5.029232E-4 )
( 0.9999352 6.476684E-5 )
( 0.9998443 1.5569049E-4 )
( 0.9998746 1.2539185E-4 ))
(( 0.99983716 1.6286645E-4 )
( 0.99917734 8.2263903E-4 )
( 0.9996702 3.2981532E-4 )
( 0.99971527 2.8473805E-4 ))
(( 0.5 0.5 )
( 0.5 0.5 )
( 0.5 0.5 )
( 0.5 0.5 ))
(( 0.9996808 3.191829E-4 )
( 0.99941486 5.851185E-4 )
( 0.9999241 7.585527E-5 )
( 0.999939 6.0979328E-5 ))
(( 0.9990128 9.871669E-4 )
( 0.9991095 8.90472E-4 )
( 0.9970238 0.0029761905 )
( 0.9976526 0.0023474179 ))
(( 0.99813783 0.0018621974 )
( 0.9981785 0.0018214936 )
( 0.9966887 0.0033112583 )
( 0.997191 0.0028089888 ))
(( 0.5 0.5 )
( 0.5 0.5 )
( 0.5 0.5 )
( 0.5 0.5 ))))
(((( 0.9996144 3.8556682E-4 )
( 0.9991447 8.5534435E-4 )
( 0.9995834 4.1654962E-4 )
( 0.9994067 5.932772E-4 ))
(( 0.9995111 4.888492E-4 )
( 0.9993724 6.275494E-4 )
( 0.99956864 4.3133195E-4 )
( 0.9996933 3.066962E-4 ))
(( 0.9998295 1.7050299E-4 )
( 0.99981576 1.8422992E-4 )
( 0.9996453 3.5473573E-4 )
( 0.9997119 2.881014E-4 ))
(( 0.9992852 7.147963E-4 )
( 0.99389315 0.0061068702 )
( 0.9891008 0.010899182 )
( 0.99888146 0.0011185682 ))
(( 0.9984686 0.0015313936 )
( 0.99840254 0.0015974441 )
( 0.9954128 0.0045871558 )
( 0.9966887 0.0033112583 ))
(( 0.999926 7.402473E-5 )
( 0.99992573 7.4266616E-5 )
( 0.99984705 1.5292858E-4 )
( 0.9998745 1.25502E-4 ))
(( 0.5 0.5 )
( 0.5 0.5 )
( 0.5 0.5 )
( 0.5 0.5 ))
(( 0.9950739 0.0049261083 )
( 0.9918699 0.008130081 )
( 0.9918033 0.008196721 )
( 0.9941176 0.005882353 ))
(( 0.5 0.5 )
( 0.5 0.5 )
( 0.5 0.5 )
( 0.5 0.5 )))
((( 0.9988971 0.0011028955 )
( 0.9967586 0.0032414366 )
( 0.9991628 8.3723606E-4 )
( 0.99952996 4.7001947E-4 ))
(( 0.998662 0.0013380335 )
( 0.99689776 0.0031022476 )
( 0.99865264 0.0013473767 )
( 0.99913263 8.67358E-4 ))
(( 0.99607694 0.003923077 )
( 0.99704814 0.0029518427 )
( 0.9978122 0.0021878155 )
( 0.99825853 0.0017414602 ))
(( 0.9996314 3.6859565E-4 )
( 0.9960231 0.003976862 )
( 0.9988453 0.0011547344 )
( 0.9992145 7.8554597E-4 ))
(( 0.9993132 6.868132E-4 )
( 0.99929076 7.0921984E-4 )
( 0.9986807 0.0013192613 )
( 0.9988827 0.0011173184 ))
(( 0.99731284 0.0026871583 )
( 0.9955115 0.0044885073 )
( 0.9965325 0.0034674793 )
( 0.99991834 8.167265E-5 ))
(( 0.5 0.5 )
( 0.5 0.5 )
( 0.5 0.5 )
( 0.5 0.5 ))
(( 0.9982759 0.0017241379 )
( 0.9979757 0.0020242915 )
( 0.99714285 0.0028571428 )
( 0.99769586 0.0023041475 ))
(( 0.99655175 0.0034482758 )
( 0.99723756 0.002762431 )
( 0.99450547 0.0054945056 )
( 0.9948454 0.005154639 ))))
(((( 0.9994267 5.732562E-4 )
( 0.99915165 8.483716E-4 )
( 0.9996532 3.4677016E-4 )
( 0.9994886 5.1139435E-4 ))
(( 0.999707 2.930111E-4 )
( 0.99915624 8.437801E-4 )
( 0.99948275 5.1725627E-4 )
( 0.99954695 4.530422E-4 ))
(( 0.999782 2.179599E-4 )
( 0.999758 2.4201356E-4 )
( 0.9966809 0.0033191086 )
( 0.99881655 0.001183432 ))
(( 0.9970414 0.00295858 )
( 0.99787235 0.0021276595 )
( 0.9925373 0.0074626864 )
( 0.9936709 0.006329114 ))
(( 0.9941176 0.005882353 )
( 0.996063 0.003937008 )
( 0.98 0.02 )
( 0.9883721 0.011627907 ))
(( 0.99972874 2.7124162E-4 )
( 0.9996529 3.471017E-4 )
( 0.9998504 1.49611E-4 )
( 0.9998784 1.2156577E-4 ))
(( 0.5 0.5 )
( 0.5 0.5 )
( 0.5 0.5 )
( 0.5 0.5 ))
(( 0.5 0.5 )
( 0.5 0.5 )
( 0.5 0.5 )
( 0.5 0.5 ))
(( 0.5 0.5 )
( 0.5 0.5 )
( 0.5 0.5 )
( 0.5 0.5 )))
((( 0.998741 0.0012590305 )
( 0.9983551 0.0016449271 )
( 0.9993971 6.029281E-4 )
( 0.9996694 3.306121E-4 ))
(( 0.99891484 0.001085173 )
( 0.99871284 0.0012871441 )
( 0.9987799 0.0012201195 )
( 0.9994554 5.446199E-4 ))
(( 0.99928904 7.109847E-4 )
( 0.99816394 0.0018360415 )
( 0.9991301 8.6994347E-4 )
( 0.99948657 5.134349E-4 ))
(( 0.99338996 0.0066100094 )
( 0.99897224 0.0010277493 )
( 0.9978166 0.0021834061 )
( 0.9983051 0.0016949152 ))
(( 0.99834436 0.0016556291 )
( 0.99850523 0.0014947683 )
( 0.996063 0.003937008 )
( 0.99710983 0.0028901733 ))
(( 0.9984382 0.001561815 )
( 0.99766165 0.0023383608 )
( 0.9990344 9.6557994E-4 )
( 0.99986464 1.3536074E-4 ))
(( 0.996124 0.003875969 )
( 0.9948454 0.005154639 )
( 0.9883721 0.011627907 )
( 0.9909091 0.009090909 ))
(( 0.5 0.5 )
( 0.5 0.5 )
( 0.5 0.5 )
( 0.5 0.5 ))
(( 0.5 0.5 )
( 0.5 0.5 )
( 0.9285714 0.071428575 )
( 0.5 0.5 ))))
(((( 0.99943465 5.65356E-4 )
( 0.99852246 0.001477569 )
( 0.9997663 2.3370601E-4 )
( 0.9997 2.999715E-4 ))
(( 0.9992051 7.948862E-4 )
( 0.99868304 0.0013169597 )
( 0.9995134 4.86618E-4 )
( 0.9999042 9.5806856E-5 ))
(( 0.9957391 0.004260898 )
( 0.99965775 3.4223136E-4 )
( 0.9991694 8.3056476E-4 )
( 0.9993395 6.60502E-4 ))
(( 0.5 0.5 )
( 0.5 0.5 )
( 0.5 0.5 )
( 0.5 0.5 ))
(( 0.5 0.5 )
( 0.5 0.5 )
( 0.5 0.5 )
( 0.5 0.5 ))
(( 0.9989354 0.0010645848 )
( 0.99941146 5.885122E-4 )
( 0.9997242 2.7578598E-4 )
( 0.9988864 0.0011135858 ))
(( 0.5 0.5 )
( 0.5 0.5 )
( 0.5 0.5 )
( 0.5 0.5 ))
(( 0.5 0.5 )
( 0.5 0.5 )
( 0.5 0.5 )
( 0.5 0.5 ))
(( 0.5 0.5 )
( 0.5 0.5 )
( 0.5 0.5 )
( 0.5 0.5 )))
((( 0.997132 0.0028679853 )
( 0.9980767 0.0019233068 )
( 0.9994011 5.989286E-4 )
( 0.99938726 6.1275926E-4 ))
(( 0.99780095 0.0021990472 )
( 0.9987289 0.0012711138 )
( 0.99914587 8.541496E-4 )
( 0.9991887 8.112977E-4 ))
(( 0.99845105 0.0015489296 )
( 0.9976704 0.00232961 )
( 0.9984002 0.0015997867 )
( 0.9996857 3.1430068E-4 ))
(( 0.99935025 6.497726E-4 )
( 0.99944043 5.595971E-4 )
( 0.99837136 0.0016286644 )
( 0.9986595 0.0013404826 ))
(( 0.5 0.5 )
( 0.5 0.5 )
( 0.5 0.5 )
( 0.5 0.5 ))
(( 0.9961607 0.0038393175 )
( 0.99863565 0.0013643599 )
( 0.9998546 1.453911E-4 )
( 0.99906534 9.346886E-4 ))
(( 0.5 0.5 )
( 0.5 0.5 )
( 0.5 0.5 )
( 0.5 0.5 ))
(( 0.5 0.5 )
( 0.5 0.5 )
( 0.5 0.5 )
( 0.5 0.5 ))
(( 0.5 0.5 )
( 0.5 0.5 )
( 0.5 0.5 )
( 0.5 0.5 )))));
}

potential (IncidentUpstream | TimeOfDay DayOfWeek Weather Direction)
{
 data = ((((( 0.9990608 9.392162E-4 )
( 0.99944526 5.5471214E-4 )
( 0.9996702 3.2979215E-4 )
( 0.9996072 3.9277523E-4 ))
(( 0.9990086 9.914261E-4 )
( 0.9999261 7.39071E-5 )
( 0.99951214 4.8786978E-4 )
( 0.9999292 7.0808994E-5 ))
(( 0.9996061 3.9390757E-4 )
( 0.99899673 0.0010032606 )
( 0.99746513 0.0025348542 )
( 0.99974936 2.5062656E-4 ))
(( 0.99945027 5.497526E-4 )
( 0.9993675 6.3251104E-4 )
( 0.9598811 0.04011887 )
( 0.99883854 0.0011614402 ))
(( 0.5 0.5 )
( 0.5 0.5 )
( 0.5 0.5 )
( 0.5 0.5 ))
(( 0.9987263 0.0012736691 )
( 0.9979904 0.0020095455 )
( 0.999774 2.2603979E-4 )
( 0.9996535 3.4650034E-4 ))
(( 0.9983687 0.0016313214 )
( 0.9986111 0.0013888889 )
( 0.9951456 0.004854369 )
( 0.99604744 0.0039525693 ))
(( 0.95652175 0.04347826 )
( 0.9941176 0.005882353 )
( 0.9883721 0.011627907 )
( 0.9909091 0.009090909 ))
(( 0.5 0.5 )
( 0.5 0.5 )
( 0.5 0.5 )
( 0.5 0.5 )))
((( 0.99924064 7.593717E-4 )
( 0.99935853 6.414457E-4 )
( 0.9996634 3.3659907E-4 )
( 0.9996196 3.8038357E-4 ))
(( 0.99895185 0.0010481378 )
( 0.99953276 4.672601E-4 )
( 0.99948597 5.140444E-4 )
( 0.9993164 6.835767E-4 ))
(( 0.9978793 0.002120698 )
( 0.9990084 9.916044E-4 )
( 0.99986583 1.3415616E-4 )
( 0.9998929 1.071352E-4 ))
(( 0.9998167 1.8328446E-4 )
( 0.9994403 5.5970147E-4 )
( 0.9995804 4.196391E-4 )
( 0.99965024 3.4977266E-4 ))
(( 0.9936709 0.006329114 )
( 0.99509805 0.004901961 )
( 0.9897959 0.010204081 )
( 0.9883721 0.011627907 ))
(( 0.99632096 0.003679019 )
( 0.9992325 7.6750177E-4 )
( 0.9998774 1.2257906E-4 )
( 0.999048 9.5201825E-4 ))
(( 0.98621553 0.013784461 )
( 0.998954 0.0010460251 )
( 0.99583334 0.004166667 )
( 0.99710983 0.0028901733 ))
(( 0.5 0.5 )
( 0.5 0.5 )
( 0.5 0.5 )
( 0.5 0.5 ))
(( 0.5 0.5 )
( 0.5 0.5 )
( 0.5 0.5 )
( 0.5 0.5 ))))
(((( 0.99974906 2.5093515E-4 )
( 0.9993855 6.1454327E-4 )
( 0.99963427 3.657535E-4 )
( 0.99992496 7.504268E-5 ))
(( 0.9993746 6.2540144E-4 )
( 0.99981374 1.8626703E-4 )
( 0.99796665 0.0020333638 )
( 0.9996257 3.7434066E-4 ))
(( 0.99972713 2.728513E-4 )
( 0.9996955 3.045067E-4 )
( 0.9994114 5.885815E-4 )
( 0.9956647 0.00433526 ))
(( 0.9984648 0.001535155 )
( 0.9997014 2.985966E-4 )
( 0.9992453 7.54717E-4 )
( 0.99934936 6.506181E-4 ))
(( 0.9946808 0.005319149 )
( 0.9962121 0.003787879 )
( 0.98 0.02 )
( 0.9880952 0.011904762 ))
(( 0.9999324 6.759954E-5 )
( 0.9981737 0.0018262987 )
( 0.99985576 1.442585E-4 )
( 0.99950665 4.933399E-4 ))
(( 0.5 0.5 )
( 0.5 0.5 )
( 0.5 0.5 )
( 0.5 0.5 ))
(( 0.5 0.5 )
( 0.5 0.5 )
( 0.9285714 0.071428575 )
( 0.5 0.5 ))
(( 0.5 0.5 )
( 0.5 0.5 )
( 0.5 0.5 )
( 0.5 0.5 )))
((( 0.99974185 2.5817566E-4 )
( 0.9996944 3.0559016E-4 )
( 0.99985427 1.457454E-4 )
( 0.99988127 1.1872139E-4 ))
(( 0.99984413 1.5588464E-4 )
( 0.9996946 3.0541074E-4 )
( 0.9998721 1.279345E-4 )
( 0.9999869 1.31216375E-5 ))
(( 0.99943423 5.6578865E-4 )
( 0.998057 0.0019430051 )
( 0.9957964 0.004203643 )
( 0.9998746 1.2539185E-4 ))
(( 0.99983716 1.6286645E-4 )
( 0.99753207 0.002467917 )
( 0.9960422 0.003957784 )
( 0.99971527 2.8473805E-4 ))
(( 0.5 0.5 )
( 0.5 0.5 )
( 0.5 0.5 )
( 0.5 0.5 ))
(( 0.99955314 4.4685605E-4 )
( 0.9990248 9.751975E-4 )
( 0.9992415 7.585527E-4 )
( 0.9991463 8.537106E-4 ))
(( 0.9921027 0.007897335 )
( 0.9991095 8.90472E-4 )
( 0.9791667 0.020833334 )
( 0.9976526 0.0023474179 ))
(( 0.99813783 0.0018621974 )
( 0.9981785 0.0018214936 )
( 0.9966887 0.0033112583 )
( 0.997191 0.0028089888 ))
(( 0.5 0.5 )
( 0.5 0.5 )
( 0.5 0.5 )
( 0.5 0.5 ))))
(((( 0.9995711 4.2888892E-4 )
( 0.9986947 0.0013052911 )
( 0.99969 3.099904E-4 )
( 0.9995082 4.917956E-4 ))
(( 0.9992246 7.754159E-4 )
( 0.9993064 6.9360726E-4 )
( 0.9992236 7.7639753E-4 )
( 0.99965924 3.4077355E-4 ))
(( 0.9998295 1.7050299E-4 )
( 0.9996315 3.6845985E-4 )
( 0.9996453 3.5473573E-4 )
( 0.9997119 2.881014E-4 ))
(( 0.9992852 7.147963E-4 )
( 0.9885496 0.011450382 )
( 0.9986376 0.0013623978 )
( 0.99888146 0.0011185682 ))
(( 0.9984686 0.0015313936 )
( 0.99840254 0.0015974441 )
( 0.940367 0.059633028 )
( 0.9966887 0.0033112583 ))
(( 0.999926 7.402473E-5 )
( 0.99992573 7.4266616E-5 )
( 0.99984705 1.5292858E-4 )
( 0.9998745 1.25502E-4 ))
(( 0.5 0.5 )
( 0.5 0.5 )
( 0.5 0.5 )
( 0.5 0.5 ))
(( 0.9950739 0.0049261083 )
( 0.9918699 0.008130081 )
( 0.9918033 0.008196721 )
( 0.9941176 0.005882353 ))
(( 0.5 0.5 )
( 0.5 0.5 )
( 0.5 0.5 )
( 0.5 0.5 )))
((( 0.99849015 0.0015098203 )
( 0.99769837 0.0023016217 )
( 0.99899083 0.0010091685 )
( 0.9993519 6.481014E-4 ))
(( 0.9988725 0.00112748 )
( 0.99799514 0.002004854 )
( 0.99883336 0.0011666311 )
( 0.9993367 6.632738E-4 ))
(( 0.99923074 7.6923077E-4 )
( 0.9989879 0.0010120604 )
( 0.998822 0.0011780545 )
( 0.9987944 0.0012056263 ))
(( 0.9996314 3.6859565E-4 )
( 0.99963844 3.615329E-4 )
( 0.9988453 0.0011547344 )
( 0.9992145 7.8554597E-4 ))
(( 0.9993132 6.868132E-4 )
( 0.99929076 7.0921984E-4 )
( 0.9986807 0.0013192613 )
( 0.9988827 0.0011173184 ))
(( 0.99910426 8.957194E-4 )
( 0.9975831 0.0024168887 )
( 0.9989492 0.0010507513 )
( 0.9982032 0.0017967984 ))
(( 0.5 0.5 )
( 0.5 0.5 )
( 0.5 0.5 )
( 0.5 0.5 ))
(( 0.9982759 0.0017241379 )
( 0.9979757 0.0020242915 )
( 0.99714285 0.0028571428 )
( 0.99769586 0.0023041475 ))
(( 0.99655175 0.0034482758 )
( 0.99723756 0.002762431 )
( 0.99450547 0.0054945056 )
( 0.9948454 0.005154639 ))))
(((( 0.99942136 5.786138E-4 )
( 0.99940944 5.905332E-4 )
( 0.9993916 6.083687E-4 )
( 0.9996201 3.7989294E-4 ))
(( 0.9994023 5.977426E-4 )
( 0.999096 9.0405013E-4 )
( 0.9984195 0.0015805052 )
( 0.9993431 6.569112E-4 ))
(( 0.999782 2.179599E-4 )
( 0.9961278 0.003872217 )
( 0.9952584 0.0047415835 )
( 0.9980276 0.0019723866 ))
(( 0.9970414 0.00295858 )
( 0.99787235 0.0021276595 )
( 0.9925373 0.0074626864 )
( 0.9936709 0.006329114 ))
(( 0.9941176 0.005882353 )
( 0.996063 0.003937008 )
( 0.98 0.02 )
( 0.9883721 0.011627907 ))
(( 0.99972874 2.7124162E-4 )
( 0.99979174 2.0826102E-4 )
( 0.9998504 1.49611E-4 )
( 0.9979334 0.002066618 ))
(( 0.5 0.5 )
( 0.5 0.5 )
( 0.5 0.5 )
( 0.5 0.5 ))
(( 0.5 0.5 )
( 0.5 0.5 )
( 0.5 0.5 )
( 0.5 0.5 ))
(( 0.5 0.5 )
( 0.5 0.5 )
( 0.5 0.5 )
( 0.5 0.5 )))
((( 0.9987745 0.0012254427 )
( 0.99878806 0.0012119398 )
( 0.999189 8.109974E-4 )
( 0.9995715 4.2850283E-4 ))
(( 0.99865794 0.0013420497 )
( 0.99917334 8.266572E-4 )
( 0.99846864 0.0015313745 )
( 0.9994748 5.2516925E-4 ))
(( 0.9994668 5.332385E-4 )
( 0.9988984 0.0011016249 )
( 0.99760765 0.0023923444 )
( 0.99914426 8.557248E-4 ))
(( 0.9990557 9.4428705E-4 )
( 0.99897224 0.0010277493 )
( 0.9978166 0.0021834061 )
( 0.9983051 0.0016949152 ))
(( 0.99834436 0.0016556291 )
( 0.99850523 0.0014947683 )
( 0.996063 0.003937008 )
( 0.99710983 0.0028901733 ))
(( 0.9981094 0.0018906181 )
( 0.9978955 0.0021045248 )
( 0.99960244 3.9759174E-4 )
( 0.9997293 2.7072147E-4 ))
(( 0.996124 0.003875969 )
( 0.9948454 0.005154639 )
( 0.9883721 0.011627907 )
( 0.9909091 0.009090909 ))
(( 0.5 0.5 )
( 0.5 0.5 )
( 0.5 0.5 )
( 0.5 0.5 ))
(( 0.5 0.5 )
( 0.5 0.5 )
( 0.9285714 0.071428575 )
( 0.5 0.5 ))))
(((( 0.99913967 8.603243E-4 )
( 0.99913806 8.6191524E-4 )
( 0.9992428 7.572075E-4 )
( 0.99971503 2.8497292E-4 ))
(( 0.9987911 0.0012088895 )
( 0.9992132 7.867552E-4 )
( 0.9991484 8.515815E-4 )
( 0.9997764 2.2354933E-4 ))
(( 0.9977057 0.0022943297 )
( 0.99828887 0.0017111567 )
( 0.9991694 8.3056476E-4 )
( 0.9993395 6.60502E-4 ))
(( 0.5 0.5 )
( 0.5 0.5 )
( 0.5 0.5 )
( 0.5 0.5 ))
(( 0.5 0.5 )
( 0.5 0.5 )
( 0.5 0.5 )
( 0.5 0.5 ))
(( 0.9998817 1.182872E-4 )
( 0.9998823 1.17702446E-4 )
( 0.9997242 2.7578598E-4 )
( 0.99933183 6.681514E-4 ))
(( 0.5 0.5 )
( 0.5 0.5 )
( 0.5 0.5 )
( 0.5 0.5 ))
(( 0.5 0.5 )
( 0.5 0.5 )
( 0.5 0.5 )
( 0.5 0.5 ))
(( 0.5 0.5 )
( 0.5 0.5 )
( 0.5 0.5 )
( 0.5 0.5 )))
((( 0.99675363 0.0032463558 )
( 0.9986314 0.0013685707 )
( 0.99891305 0.0010869445 )
( 0.9994913 5.087058E-4 ))
(( 0.9972493 0.0027506729 )
( 0.99888486 0.0011151489 )
( 0.99855316 0.0014468249 )
( 0.99939495 6.050356E-4 ))
(( 0.99690217 0.0030978592 )
( 0.99701333 0.0029866793 )
( 0.99613386 0.0038661512 )
( 0.9998952 1.0476689E-4 ))
(( 0.99935025 6.497726E-4 )
( 0.99944043 5.595971E-4 )
( 0.99837136 0.0016286644 )
( 0.9986595 0.0013404826 ))
(( 0.5 0.5 )
( 0.5 0.5 )
( 0.5 0.5 )
( 0.5 0.5 ))
(( 0.9957341 0.004265908 )
( 0.9990146 9.853711E-4 )
( 0.9998546 1.453911E-4 )
( 0.99906534 9.346886E-4 ))
(( 0.5 0.5 )
( 0.5 0.5 )
( 0.5 0.5 )
( 0.5 0.5 ))
(( 0.5 0.5 )
( 0.5 0.5 )
( 0.5 0.5 )
( 0.5 0.5 ))
(( 0.5 0.5 )
( 0.5 0.5 )
( 0.5 0.5 )
( 0.5 0.5 )))));
}

potential (Workzone | TimeOfDay DayOfWeek Weather Direction)
{
 data = ((((( 0.999248 7.51997E-4 )
( 0.9979466 0.0020534082 )
( 0.99948776 5.122304E-4 )
( 0.9993112 6.8877975E-4 ))
(( 0.99998164 1.835974E-5 )
( 0.9993533 6.466871E-4 )
( 0.99835896 0.0016410166 )
( 0.9991149 8.851124E-4 ))
(( 0.9998687 1.3130253E-4 )
( 0.9998746 1.2540758E-4 )
( 0.99968314 3.1685678E-4 )
( 0.99373436 0.006265664 ))
(( 0.99945027 5.497526E-4 )
( 0.9993675 6.3251104E-4 )
( 0.9985141 0.0014858841 )
( 0.99883854 0.0011614402 ))
(( 0.5 0.5 )
( 0.5 0.5 )
( 0.5 0.5 )
( 0.5 0.5 ))
(( 0.99991506 8.491127E-5 )
( 0.99991626 8.373106E-5 )
( 0.999774 2.2603979E-4 )
( 0.9998267 1.7325017E-4 ))
(( 0.9983687 0.0016313214 )
( 0.9986111 0.0013888889 )
( 0.9951456 0.004854369 )
( 0.99604744 0.0039525693 ))
(( 0.99604744 0.0039525693 )
( 0.9941176 0.005882353 )
( 0.9883721 0.011627907 )
( 0.9909091 0.009090909 ))
(( 0.5 0.5 )
( 0.5 0.5 )
( 0.5 0.5 )
( 0.5 0.5 )))
((( 0.9994449 5.5511034E-4 )
( 0.99752223 0.002477741 )
( 0.99896264 0.0010373873 )
( 0.99960214 3.9787247E-4 ))
(( 0.9999005 9.945833E-5 )
( 0.9974499 0.0025501314 )
( 0.99976134 2.3866349E-4 )
( 0.9995637 4.3632556E-4 ))
(( 0.9999394 6.059137E-5 )
( 0.9999339 6.6106964E-5 )
( 0.99986583 1.3415616E-4 )
( 0.9998929 1.071352E-4 ))
(( 0.9998167 1.8328446E-4 )
( 0.99981344 1.8656717E-4 )
( 0.9995804 4.196391E-4 )
( 0.99965024 3.4977266E-4 ))
(( 0.9936709 0.006329114 )
( 0.99509805 0.004901961 )
( 0.9897959 0.010204081 )
( 0.9883721 0.011627907 ))
(( 0.99994665 5.3319116E-5 )
( 0.99994516 5.4821558E-5 )
( 0.9998774 1.2257906E-4 )
( 0.9999048 9.520183E-5 ))
(( 0.9987469 0.0012531328 )
( 0.998954 0.0010460251 )
( 0.99583334 0.004166667 )
( 0.99710983 0.0028901733 ))
(( 0.5 0.5 )
( 0.5 0.5 )
( 0.5 0.5 )
( 0.5 0.5 ))
(( 0.5 0.5 )
( 0.5 0.5 )
( 0.5 0.5 )
( 0.5 0.5 ))))
(((( 0.99999666 3.345802E-6 )
( 0.99756944 0.002430553 )
( 0.9998134 1.8660894E-4 )
( 0.99946845 5.315523E-4 ))
(( 0.99974644 2.5354113E-4 )
( 0.9972229 0.0027770721 )
( 0.9989626 0.0010374305 )
( 0.99996597 3.4030967E-5 ))
(( 0.99972713 2.728513E-4 )
( 0.9996955 3.045067E-4 )
( 0.9994114 5.885815E-4 )
( 0.9995183 4.8169558E-4 ))
(( 0.999693 3.07031E-4 )
( 0.9997014 2.985966E-4 )
( 0.99018866 0.00981132 )
( 0.99934936 6.506181E-4 ))
(( 0.9946808 0.005319149 )
( 0.9962121 0.003787879 )
( 0.98 0.02 )
( 0.9880952 0.011904762 ))
(( 0.9999324 6.759954E-5 )
( 0.99993235 6.764069E-5 )
( 0.99985576 1.442585E-4 )
( 0.9998767 1.2333498E-4 ))
(( 0.5 0.5 )
( 0.5 0.5 )
( 0.5 0.5 )
( 0.5 0.5 ))
(( 0.5 0.5 )
( 0.5 0.5 )
( 0.9285714 0.071428575 )
( 0.5 0.5 ))
(( 0.5 0.5 )
( 0.5 0.5 )
( 0.5 0.5 )
( 0.5 0.5 )))
((( 0.99929196 7.080659E-4 )
( 0.99778914 0.0022108785 )
( 0.9990964 9.036215E-4 )
( 0.9998159 1.8413931E-4 ))
(( 0.99910533 8.946423E-4 )
( 0.99819595 0.0018040541 )
( 0.9992164 7.835988E-4 )
( 0.9999869 1.31216375E-5 ))
(( 0.9999371 6.28654E-5 )
( 0.99443007 0.0055699483 )
( 0.9998443 1.5569049E-4 )
( 0.9998746 1.2539185E-4 ))
(( 0.99983716 1.6286645E-4 )
( 0.9958868 0.004113195 )
( 0.9996702 3.2981532E-4 )
( 0.99971527 2.8473805E-4 ))
(( 0.5 0.5 )
( 0.5 0.5 )
( 0.5 0.5 )
( 0.5 0.5 ))
(( 0.99996805 3.191829E-5 )
( 0.9999675 3.250658E-5 )
( 0.9999241 7.585527E-5 )
( 0.999939 6.0979328E-5 ))
(( 0.9990128 9.871669E-4 )
( 0.9991095 8.90472E-4 )
( 0.9970238 0.0029761905 )
( 0.9976526 0.0023474179 ))
(( 0.99813783 0.0018621974 )
( 0.9981785 0.0018214936 )
( 0.9966887 0.0033112583 )
( 0.997191 0.0028089888 ))
(( 0.5 0.5 )
( 0.5 0.5 )
( 0.5 0.5 )
( 0.5 0.5 ))))
(((( 0.99979204 2.0794614E-4 )
( 0.9981512 0.0018487911 )
( 0.99987406 1.259336E-4 )
( 0.9999844 1.5612559E-5 ))
(( 0.99983144 1.6856869E-4 )
( 0.99846417 0.0015358446 )
( 0.9984041 0.0015959282 )
( 0.9999659 3.4077355E-5 ))
(( 0.9998295 1.7050299E-4 )
( 0.99981576 1.8422992E-4 )
( 0.9996453 3.5473573E-4 )
( 0.9997119 2.881014E-4 ))
(( 0.9992852 7.147963E-4 )
( 0.99923664 7.633588E-4 )
( 0.9986376 0.0013623978 )
( 0.99888146 0.0011185682 ))
(( 0.9984686 0.0015313936 )
( 0.99840254 0.0015974441 )
( 0.9954128 0.0045871558 )
( 0.9966887 0.0033112583 ))
(( 0.999926 7.402473E-5 )
( 0.99992573 7.4266616E-5 )
( 0.99984705 1.5292858E-4 )
( 0.9998745 1.25502E-4 ))
(( 0.5 0.5 )
( 0.5 0.5 )
( 0.5 0.5 )
( 0.5 0.5 ))
(( 0.9950739 0.0049261083 )
( 0.9918699 0.008130081 )
( 0.9918033 0.008196721 )
( 0.9941176 0.005882353 ))
(( 0.5 0.5 )
( 0.5 0.5 )
( 0.5 0.5 )
( 0.5 0.5 )))
((( 0.99977714 2.228398E-4 )
( 0.9983053 0.001694693 )
( 0.9993758 6.241894E-4 )
( 0.9999883 1.1677503E-5 ))
(( 0.99987096 1.2904892E-4 )
( 0.99823433 0.0017656783 )
( 0.99870193 0.0012980824 )
( 0.99998724 1.2755265E-5 ))
(( 0.99992305 7.6923076E-5 )
( 0.99991566 8.433837E-5 )
( 0.998822 0.0011780545 )
( 0.99986607 1.3395847E-4 ))
(( 0.9996314 3.6859565E-4 )
( 0.99963844 3.615329E-4 )
( 0.9988453 0.0011547344 )
( 0.9992145 7.8554597E-4 ))
(( 0.9993132 6.868132E-4 )
( 0.99929076 7.0921984E-4 )
( 0.9986807 0.0013192613 )
( 0.9988827 0.0011173184 ))
(( 0.99948144 5.185744E-4 )
( 0.99995065 4.932426E-5 )
( 0.9998949 1.0507513E-4 )
( 0.99991834 8.167265E-5 ))
(( 0.5 0.5 )
( 0.5 0.5 )
( 0.5 0.5 )
( 0.5 0.5 ))
(( 0.9982759 0.0017241379 )
( 0.9979757 0.0020242915 )
( 0.99714285 0.0028571428 )
( 0.99769586 0.0023041475 ))
(( 0.99655175 0.0034482758 )
( 0.99723756 0.002762431 )
( 0.99450547 0.0054945056 )
( 0.9948454 0.005154639 ))))
(((( 0.9997241 2.7591304E-4 )
( 0.9983809 0.0016191144 )
( 0.9999209 7.9087935E-5 )
( 0.9999951 4.8704223E-6 ))
(( 0.99998826 1.1720444E-5 )
( 0.99898744 0.0010125361 )
( 0.9965229 0.0034771115 )
( 0.99997735 2.265211E-5 ))
(( 0.999782 2.179599E-4 )
( 0.999758 2.4201356E-4 )
( 0.9890944 0.010905642 )
( 0.99960554 3.944773E-4 ))
(( 0.9970414 0.00295858 )
( 0.99787235 0.0021276595 )
( 0.9925373 0.0074626864 )
( 0.9936709 0.006329114 ))
(( 0.9941176 0.005882353 )
( 0.996063 0.003937008 )
( 0.98 0.02 )
( 0.9883721 0.011627907 ))
(( 0.99993217 6.7810404E-5 )
( 0.99993056 6.942034E-5 )
( 0.9998504 1.49611E-4 )
( 0.9998784 1.2156577E-4 ))
(( 0.5 0.5 )
( 0.5 0.5 )
( 0.5 0.5 )
( 0.5 0.5 ))
(( 0.5 0.5 )
( 0.5 0.5 )
( 0.5 0.5 )
( 0.5 0.5 ))
(( 0.5 0.5 )
( 0.5 0.5 )
( 0.5 0.5 )
( 0.5 0.5 )))
((( 0.9987634 0.0012366388 )
( 0.99441576 0.0055842623 )
( 0.99800676 0.0019932094 )
( 0.9998541 1.459126E-4 ))
(( 0.99949676 5.032686E-4 )
( 0.9939637 0.006036262 )
( 0.9978959 0.0021040838 )
( 0.9999903 9.725356E-6 ))
(( 0.9999111 8.887309E-5 )
( 0.9958689 0.004131093 )
( 0.9997825 2.1748587E-4 )
( 0.9998289 1.7114496E-4 ))
(( 0.9990557 9.4428705E-4 )
( 0.99897224 0.0010277493 )
( 0.9978166 0.0021834061 )
( 0.9983051 0.0016949152 ))
(( 0.9784768 0.02152318 )
( 0.99850523 0.0014947683 )
( 0.996063 0.003937008 )
( 0.99710983 0.0028901733 ))
(( 0.99734217 0.0026578256 )
( 0.99897695 0.0010230328 )
( 0.99875045 0.001249574 )
( 0.9999549 4.5120247E-5 ))
(( 0.996124 0.003875969 )
( 0.9948454 0.005154639 )
( 0.9883721 0.011627907 )
( 0.9909091 0.009090909 ))
(( 0.5 0.5 )
( 0.5 0.5 )
( 0.5 0.5 )
( 0.5 0.5 ))
(( 0.5 0.5 )
( 0.5 0.5 )
( 0.9285714 0.071428575 )
( 0.5 0.5 ))))
(((( 0.9997706 2.2941982E-4 )
( 0.9986583 0.0013417006 )
( 0.99942976 5.702427E-4 )
( 0.9999025 9.749074E-5 ))
(( 0.99998343 1.656013E-5 )
( 0.9994869 5.131012E-4 )
( 0.9984996 0.0015004055 )
( 0.9997764 2.2354933E-4 ))
(( 0.99967223 3.277614E-4 )
( 0.99965775 3.4223136E-4 )
( 0.9991694 8.3056476E-4 )
( 0.9993395 6.60502E-4 ))
(( 0.5 0.5 )
( 0.5 0.5 )
( 0.5 0.5 )
( 0.5 0.5 ))
(( 0.5 0.5 )
( 0.5 0.5 )
( 0.5 0.5 )
( 0.5 0.5 ))
(( 0.9998817 1.182872E-4 )
( 0.9998823 1.17702446E-4 )
( 0.9997242 2.7578598E-4 )
( 0.99977726 2.2271715E-4 ))
(( 0.5 0.5 )
( 0.5 0.5 )
( 0.5 0.5 )
( 0.5 0.5 ))
(( 0.5 0.5 )
( 0.5 0.5 )
( 0.5 0.5 )
( 0.5 0.5 ))
(( 0.5 0.5 )
( 0.5 0.5 )
( 0.5 0.5 )
( 0.5 0.5 )))
((( 0.99999684 3.1795846E-6 )
( 0.9993921 6.0788455E-4 )
( 0.9992606 7.39418E-4 )
( 0.99999714 2.890374E-6 ))
(( 0.99999255 7.4543977E-6 )
( 0.99830776 0.0016922189 )
( 0.99914587 8.541496E-4 )
( 0.99998623 1.3750808E-5 ))
(( 0.9999447 5.5318913E-5 )
( 0.99707305 0.002926946 )
( 0.99986666 1.3331555E-4 )
( 0.9998952 1.0476689E-4 ))
(( 0.99935025 6.497726E-4 )
( 0.99944043 5.595971E-4 )
( 0.99837136 0.0016286644 )
( 0.9986595 0.0013404826 ))
(( 0.5 0.5 )
( 0.5 0.5 )
( 0.5 0.5 )
( 0.5 0.5 ))
(( 0.9999289 7.1098475E-5 )
( 0.9999242 7.579777E-5 )
( 0.9998546 1.453911E-4 )
( 0.9998832 1.16836076E-4 ))
(( 0.5 0.5 )
( 0.5 0.5 )
( 0.5 0.5 )
( 0.5 0.5 ))
(( 0.5 0.5 )
( 0.5 0.5 )
( 0.5 0.5 )
( 0.5 0.5 ))
(( 0.5 0.5 )
( 0.5 0.5 )
( 0.5 0.5 )
( 0.5 0.5 )))));
}

potential (RampMetering | TimeOfDay DayOfWeek Weather Direction)
{
 data = ((((( 1.0 )
( 1.0 )
( 1.0 )
( 1.0 ))
(( 1.0 )
( 1.0 )
( 1.0 )
( 1.0 ))
(( 1.0 )
( 1.0 )
( 1.0 )
( 1.0 ))
(( 1.0 )
( 1.0 )
( 1.0 )
( 1.0 ))
(( 1.0 )
( 1.0 )
( 1.0 )
( 1.0 ))
(( 1.0 )
( 1.0 )
( 1.0 )
( 1.0 ))
(( 1.0 )
( 1.0 )
( 1.0 )
( 1.0 ))
(( 1.0 )
( 1.0 )
( 1.0 )
( 1.0 ))
(( 1.0 )
( 1.0 )
( 1.0 )
( 1.0 )))
((( 1.0 )
( 1.0 )
( 1.0 )
( 1.0 ))
(( 1.0 )
( 1.0 )
( 1.0 )
( 1.0 ))
(( 1.0 )
( 1.0 )
( 1.0 )
( 1.0 ))
(( 1.0 )
( 1.0 )
( 1.0 )
( 1.0 ))
(( 1.0 )
( 1.0 )
( 1.0 )
( 1.0 ))
(( 1.0 )
( 1.0 )
( 1.0 )
( 1.0 ))
(( 1.0 )
( 1.0 )
( 1.0 )
( 1.0 ))
(( 1.0 )
( 1.0 )
( 1.0 )
( 1.0 ))
(( 1.0 )
( 1.0 )
( 1.0 )
( 1.0 ))))
(((( 1.0 )
( 1.0 )
( 1.0 )
( 1.0 ))
(( 1.0 )
( 1.0 )
( 1.0 )
( 1.0 ))
(( 1.0 )
( 1.0 )
( 1.0 )
( 1.0 ))
(( 1.0 )
( 1.0 )
( 1.0 )
( 1.0 ))
(( 1.0 )
( 1.0 )
( 1.0 )
( 1.0 ))
(( 1.0 )
( 1.0 )
( 1.0 )
( 1.0 ))
(( 1.0 )
( 1.0 )
( 1.0 )
( 1.0 ))
(( 1.0 )
( 1.0 )
( 1.0 )
( 1.0 ))
(( 1.0 )
( 1.0 )
( 1.0 )
( 1.0 )))
((( 1.0 )
( 1.0 )
( 1.0 )
( 1.0 ))
(( 1.0 )
( 1.0 )
( 1.0 )
( 1.0 ))
(( 1.0 )
( 1.0 )
( 1.0 )
( 1.0 ))
(( 1.0 )
( 1.0 )
( 1.0 )
( 1.0 ))
(( 1.0 )
( 1.0 )
( 1.0 )
( 1.0 ))
(( 1.0 )
( 1.0 )
( 1.0 )
( 1.0 ))
(( 1.0 )
( 1.0 )
( 1.0 )
( 1.0 ))
(( 1.0 )
( 1.0 )
( 1.0 )
( 1.0 ))
(( 1.0 )
( 1.0 )
( 1.0 )
( 1.0 ))))
(((( 1.0 )
( 1.0 )
( 1.0 )
( 1.0 ))
(( 1.0 )
( 1.0 )
( 1.0 )
( 1.0 ))
(( 1.0 )
( 1.0 )
( 1.0 )
( 1.0 ))
(( 1.0 )
( 1.0 )
( 1.0 )
( 1.0 ))
(( 1.0 )
( 1.0 )
( 1.0 )
( 1.0 ))
(( 1.0 )
( 1.0 )
( 1.0 )
( 1.0 ))
(( 1.0 )
( 1.0 )
( 1.0 )
( 1.0 ))
(( 1.0 )
( 1.0 )
( 1.0 )
( 1.0 ))
(( 1.0 )
( 1.0 )
( 1.0 )
( 1.0 )))
((( 1.0 )
( 1.0 )
( 1.0 )
( 1.0 ))
(( 1.0 )
( 1.0 )
( 1.0 )
( 1.0 ))
(( 1.0 )
( 1.0 )
( 1.0 )
( 1.0 ))
(( 1.0 )
( 1.0 )
( 1.0 )
( 1.0 ))
(( 1.0 )
( 1.0 )
( 1.0 )
( 1.0 ))
(( 1.0 )
( 1.0 )
( 1.0 )
( 1.0 ))
(( 1.0 )
( 1.0 )
( 1.0 )
( 1.0 ))
(( 1.0 )
( 1.0 )
( 1.0 )
( 1.0 ))
(( 1.0 )
( 1.0 )
( 1.0 )
( 1.0 ))))
(((( 1.0 )
( 1.0 )
( 1.0 )
( 1.0 ))
(( 1.0 )
( 1.0 )
( 1.0 )
( 1.0 ))
(( 1.0 )
( 1.0 )
( 1.0 )
( 1.0 ))
(( 1.0 )
( 1.0 )
( 1.0 )
( 1.0 ))
(( 1.0 )
( 1.0 )
( 1.0 )
( 1.0 ))
(( 1.0 )
( 1.0 )
( 1.0 )
( 1.0 ))
(( 1.0 )
( 1.0 )
( 1.0 )
( 1.0 ))
(( 1.0 )
( 1.0 )
( 1.0 )
( 1.0 ))
(( 1.0 )
( 1.0 )
( 1.0 )
( 1.0 )))
((( 1.0 )
( 1.0 )
( 1.0 )
( 1.0 ))
(( 1.0 )
( 1.0 )
( 1.0 )
( 1.0 ))
(( 1.0 )
( 1.0 )
( 1.0 )
( 1.0 ))
(( 1.0 )
( 1.0 )
( 1.0 )
( 1.0 ))
(( 1.0 )
( 1.0 )
( 1.0 )
( 1.0 ))
(( 1.0 )
( 1.0 )
( 1.0 )
( 1.0 ))
(( 1.0 )
( 1.0 )
( 1.0 )
( 1.0 ))
(( 1.0 )
( 1.0 )
( 1.0 )
( 1.0 ))
(( 1.0 )
( 1.0 )
( 1.0 )
( 1.0 ))))
(((( 1.0 )
( 1.0 )
( 1.0 )
( 1.0 ))
(( 1.0 )
( 1.0 )
( 1.0 )
( 1.0 ))
(( 1.0 )
( 1.0 )
( 1.0 )
( 1.0 ))
(( 1.0 )
( 1.0 )
( 1.0 )
( 1.0 ))
(( 1.0 )
( 1.0 )
( 1.0 )
( 1.0 ))
(( 1.0 )
( 1.0 )
( 1.0 )
( 1.0 ))
(( 1.0 )
( 1.0 )
( 1.0 )
( 1.0 ))
(( 1.0 )
( 1.0 )
( 1.0 )
( 1.0 ))
(( 1.0 )
( 1.0 )
( 1.0 )
( 1.0 )))
((( 1.0 )
( 1.0 )
( 1.0 )
( 1.0 ))
(( 1.0 )
( 1.0 )
( 1.0 )
( 1.0 ))
(( 1.0 )
( 1.0 )
( 1.0 )
( 1.0 ))
(( 1.0 )
( 1.0 )
( 1.0 )
( 1.0 ))
(( 1.0 )
( 1.0 )
( 1.0 )
( 1.0 ))
(( 1.0 )
( 1.0 )
( 1.0 )
( 1.0 ))
(( 1.0 )
( 1.0 )
( 1.0 )
( 1.0 ))
(( 1.0 )
( 1.0 )
( 1.0 )
( 1.0 ))
(( 1.0 )
( 1.0 )
( 1.0 )
( 1.0 )))));
}

potential (Flow | RampMetering Workzone IncidentUpstream IncidentOnLink IncidentDownstream TimeOfDay DayOfWeek Weather Direction)
{
 data = (((((((((( 0.17731667 0.3461505 0.2493458 0.22718707 )
( 0.19730344 0.3499329 0.24849576 0.20426778 )
( 0.32689875 0.4817289 0.16717245 0.024199894 )
( 0.4478712 0.37431183 0.12118982 0.056627132 ))
(( 0.20130897 0.37517005 0.23816966 0.18535133 )
( 0.23515818 0.3839185 0.22447169 0.15645164 )
( 0.38563168 0.4692171 0.12633452 0.018816726 )
( 0.49357796 0.3597786 0.10704656 0.039596938 ))
(( 0.1769958 0.30344012 0.2808561 0.23870799 )
( 0.19811557 0.31721106 0.25992462 0.22474875 )
( 0.27795425 0.51810676 0.15978399 0.04415502 )
( 0.42691532 0.39264113 0.13533266 0.04511089 ))
(( 0.19330038 0.49203736 0.26743546 0.047226798 )
( 0.28174353 0.5224258 0.18256475 0.013265951 )
( 0.5424529 0.40251574 0.053459123 0.0015723271 )
( 0.61877173 0.2723059 0.10312862 0.005793743 ))
(( 0.25 0.25 0.25 0.25 )
( 0.25 0.25 0.25 0.25 )
( 0.25 0.25 0.25 0.25 )
( 0.25 0.25 0.25 0.25 ))
(( 0.34899157 0.36099055 0.19828099 0.091736875 )
( 0.39093292 0.36775777 0.1984268 0.042882517 )
( 0.54338 0.39810213 0.04225034 0.01626751 )
( 0.64745706 0.26419026 0.0720361 0.016316611 ))
(( 0.5252032 0.45365855 0.019512195 0.0016260162 )
( 0.5761773 0.40304708 0.019390581 0.0013850415 )
( 0.6875 0.29807693 0.009615385 0.0048076925 )
( 0.85490197 0.12156863 0.019607844 0.003921569 ))
(( 0.33749998 0.5583333 0.09999999 0.0041666664 )
( 0.34302327 0.5813953 0.069767445 0.0058139535 )
( 0.8977273 0.07954546 0.011363638 0.011363638 )
( 0.89285713 0.08928572 0.008928572 0.008928572 ))
(( 0.25 0.25 0.25 0.25 )
( 0.25 0.25 0.25 0.25 )
( 0.25 0.25 0.25 0.25 )
( 0.25 0.25 0.25 0.25 )))
((( 0.19274707 0.33397362 0.2148717 0.2584076 )
( 0.23119615 0.34308103 0.21921182 0.206511 )
( 0.39651984 0.420886 0.15723532 0.025358843 )
( 0.4615607 0.35402912 0.10813574 0.076274455 ))
(( 0.20136139 0.34113792 0.21612641 0.24137428 )
( 0.24130332 0.3503886 0.22003198 0.1882761 )
( 0.40339613 0.4209655 0.15052617 0.025112223 )
( 0.47780108 0.35036123 0.105007865 0.06682981 ))
(( 0.14166616 0.31394145 0.23976146 0.30463094 )
( 0.16382752 0.37909237 0.23615918 0.22092095 )
( 0.3394298 0.4549489 0.16581495 0.039806347 )
( 0.41891605 0.37007287 0.11610969 0.094901465 ))
(( 0.14584097 0.3400513 0.27702454 0.23708318 )
( 0.17462687 0.41007462 0.24179104 0.17350747 )
( 0.4120856 0.46286193 0.119177505 0.0058749476 )
( 0.4858441 0.35092625 0.11918909 0.044040546 ))
(( 0.1125 0.475 0.34375 0.06875 )
( 0.14563107 0.51941746 0.33009708 0.004854369 )
( 0.39000002 0.59000003 0.010000001 0.010000001 )
( 0.59090906 0.3068182 0.09090909 0.011363637 ))
(( 0.3322043 0.3345699 0.16505377 0.16817205 )
( 0.41136703 0.3019843 0.1927115 0.09393723 )
( 0.5232601 0.3808764 0.09439057 0.0014729348 )
( 0.5768901 0.30937174 0.08847365 0.025264565 ))
(( 0.8533163 0.13647959 0.008928572 0.0012755102 )
( 0.8723629 0.12552744 0.0010548524 0.0010548524 )
( 0.87068963 0.12068965 0.004310345 0.004310345 )
( 0.87031704 0.123919316 0.0028818445 0.0028818445 ))
(( 0.25 0.25 0.25 0.25 )
( 0.25 0.25 0.25 0.25 )
( 0.25 0.25 0.25 0.25 )
( 0.25 0.25 0.25 0.25 ))
(( 0.25 0.25 0.25 0.25 )
( 0.25 0.25 0.25 0.25 )
( 0.25 0.25 0.25 0.25 )
( 0.25 0.25 0.25 0.25 ))))
(((( 0.54654026 0.43842956 0.007814749 0.007215418 )
( 0.5888825 0.3962965 0.013960988 8.5999136E-4 )
( 0.8570436 0.13212298 0.0019051889 0.0089282375 )
( 0.7504272 0.23881298 0.0015836156 0.009176207 ))
(( 0.57761115 0.40223077 0.011018398 0.009139685 )
( 0.6211941 0.36181527 0.014051244 0.0029393774 )
( 0.8672913 0.12700395 0.0014157818 0.004288986 )
( 0.7725291 0.21691301 0.0012601322 0.009297731 ))
(( 0.43359697 0.5445869 0.010635397 0.011180802 )
( 0.46622032 0.51582474 0.013998782 0.0039561777 )
( 0.82304525 0.16637272 0.0029394473 0.007642563 )
( 0.65072465 0.32705313 0.004347826 0.017874395 ))
(( 0.4798771 0.5001536 0.0049155145 0.015053763 )
( 0.57654434 0.41420472 0.0017905103 0.0074604596 )
( 0.89049435 0.107984796 7.604563E-4 7.604563E-4 )
( 0.78752434 0.21052632 0.0012995452 6.497726E-4 ))
(( 0.97368425 0.015789475 0.0052631586 0.0052631586 )
( 0.98872185 0.0037593988 0.0037593988 0.0037593988 )
( 0.90384614 0.057692308 0.01923077 0.01923077 )
( 0.68604654 0.29069766 0.011627907 0.011627907 ))
(( 0.7149713 0.26826635 0.0020953028 0.014667118 )
( 0.7200923 0.2704757 0.009228473 2.0356925E-4 )
( 0.8831843 0.10095183 0.004038073 0.011825786 )
( 0.7899481 0.19313411 4.939491E-4 0.016423808 ))
(( 0.25 0.25 0.25 0.25 )
( 0.25 0.25 0.25 0.25 )
( 0.25 0.25 0.25 0.25 )
( 0.25 0.25 0.25 0.25 ))
(( 0.25 0.25 0.25 0.25 )
( 0.25 0.25 0.25 0.25 )
( 0.75 0.125 0.0625 0.0625 )
( 0.25 0.25 0.25 0.25 ))
(( 0.25 0.25 0.25 0.25 )
( 0.25 0.25 0.25 0.25 )
( 0.25 0.25 0.25 0.25 )
( 0.25 0.25 0.25 0.25 )))
((( 0.5164404 0.41239002 0.050230198 0.020939386 )
( 0.53147775 0.32115516 0.068785354 0.07858175 )
( 0.72056276 0.20834185 0.042555675 0.02853974 )
( 0.74218446 0.22751573 0.017273692 0.013026182 ))
(( 0.48328435 0.43905765 0.055503912 0.022154067 )
( 0.49220905 0.34340778 0.079142176 0.085241 )
( 0.69116753 0.22823894 0.046563372 0.034030158 )
( 0.73586845 0.22972761 0.018579753 0.01582428 ))
(( 0.46169344 0.46232295 0.059175324 0.01680831 )
( 0.5141571 0.3401618 0.07228601 0.073395096 )
( 0.72230035 0.21331458 0.040162526 0.024222534 )
( 0.7438887 0.23517613 0.015670052 0.005265137 ))
(( 0.3847281 0.5081407 0.07896451 0.02816672 )
( 0.43886682 0.38767397 0.08300199 0.09045726 )
( 0.6966888 0.24503312 0.040728476 0.01754967 )
( 0.70005685 0.27632326 0.018497437 0.0051223673 ))
(( 0.25 0.25 0.25 0.25 )
( 0.25 0.25 0.25 0.25 )
( 0.25 0.25 0.25 0.25 )
( 0.25 0.25 0.25 0.25 ))
(( 0.6968216 0.2547197 0.027950807 0.020507906 )
( 0.6698596 0.22751115 0.050663017 0.051966246 )
( 0.78322583 0.17449716 0.027779886 0.014497153 )
( 0.79737574 0.1879158 0.009276778 0.005431798 ))
(( 0.993014 0.00499002 9.98004E-4 9.98004E-4 )
( 0.99733335 8.888889E-4 8.888889E-4 8.888889E-4 )
( 0.9787879 0.015151516 0.003030303 0.003030303 )
( 0.9042056 0.091121495 0.0023364485 0.0023364485 ))
(( 0.27829313 0.5120594 0.14656772 0.063079774 )
( 0.17967331 0.41379312 0.19963703 0.20689656 )
( 0.39403972 0.4205298 0.14238411 0.04304636 )
( 0.6592179 0.2877095 0.05027933 0.002793296 ))
(( 0.25 0.25 0.25 0.25 )
( 0.25 0.25 0.25 0.25 )
( 0.25 0.25 0.25 0.25 )
( 0.25 0.25 0.25 0.25 ))))
(((( 0.15760802 0.28404316 0.23477031 0.32357854 )
( 0.15538141 0.25687033 0.23632537 0.35142288 )
( 0.18516614 0.46071306 0.22272132 0.13139947 )
( 0.43566942 0.35794446 0.13056017 0.07582602 ))
(( 0.17293271 0.2685448 0.22645588 0.33206663 )
( 0.17136987 0.26522395 0.22154468 0.34186152 )
( 0.2020539 0.47044805 0.21210676 0.115391284 )
( 0.47347426 0.34538016 0.11346744 0.067678146 ))
(( 0.14198057 0.3536731 0.21459009 0.28975627 )
( 0.15339233 0.29590708 0.23635693 0.31434366 )
( 0.24672101 0.44735909 0.18823113 0.11768876 )
( 0.4762453 0.35128132 0.10912756 0.06334581 ))
(( 0.09350464 0.26837972 0.27266237 0.36545324 )
( 0.1278079 0.24709527 0.29899302 0.3261038 )
( 0.15363511 0.5761317 0.21536352 0.054869685 )
( 0.3671875 0.35379463 0.14174107 0.13727678 ))
(( 0.24122137 0.36793894 0.14503817 0.24580152 )
( 0.19585988 0.28503186 0.24363057 0.2754777 )
( 0.32692307 0.55288464 0.115384616 0.0048076925 )
( 0.76315796 0.18092106 0.052631583 0.003289474 ))
(( 0.24118257 0.32743034 0.20976585 0.22162122 )
( 0.23093487 0.32130393 0.20620777 0.24155343 )
( 0.26463842 0.45619935 0.1825409 0.09662131 )
( 0.5260979 0.31756586 0.103387706 0.052948557 ))
(( 0.25 0.25 0.25 0.25 )
( 0.25 0.25 0.25 0.25 )
( 0.25 0.25 0.25 0.25 )
( 0.25 0.25 0.25 0.25 ))
(( 0.1609756 0.23902439 0.3804878 0.2195122 )
( 0.056 0.256 0.176 0.512 )
( 0.1451613 0.5725807 0.22580646 0.056451615 )
( 0.38372093 0.36627907 0.24418604 0.0058139535 ))
(( 0.25 0.25 0.25 0.25 )
( 0.25 0.25 0.25 0.25 )
( 0.25 0.25 0.25 0.25 )
( 0.25 0.25 0.25 0.25 )))
((( 0.07988968 0.08644351 0.106194206 0.7274726 )
( 0.034408752 0.05938545 0.082886636 0.82331914 )
( 0.007900678 0.08345395 0.20153289 0.7071125 )
( 0.18600672 0.31932232 0.17699192 0.31767902 ))
(( 0.07527102 0.08856617 0.108842984 0.72731984 )
( 0.034197267 0.058864497 0.08388706 0.82305115 )
( 0.007015285 0.086593375 0.19651051 0.7098808 )
( 0.19011834 0.3306495 0.17390026 0.30533192 ))
(( 0.06801086 0.0765413 0.119115934 0.73633194 )
( 0.024758352 0.047651347 0.08902832 0.83856195 )
( 0.0021970593 0.100895725 0.2259591 0.6709481 )
( 0.17117845 0.3477441 0.15569024 0.3253872 ))
(( 0.08802947 0.10902394 0.11675875 0.68618786 )
( 0.05295611 0.067101926 0.07834603 0.8015959 )
( 0.0011520737 0.088709675 0.24654378 0.6635945 )
( 0.267451 0.3372549 0.17882353 0.21647058 ))
(( 0.074759945 0.07887517 0.10493827 0.7414266 )
( 0.023371104 0.056657225 0.06798867 0.851983 )
( 0.0065789474 0.07763158 0.18552631 0.7302632 )
( 0.15384616 0.32218507 0.16945374 0.35451505 ))
(( 0.11333555 0.12884861 0.12358271 0.6342331 )
( 0.07670851 0.09907352 0.08368201 0.740536 )
( 0.040913414 0.14906438 0.20943017 0.600592 )
( 0.27515954 0.32212403 0.16061202 0.2421044 ))
(( 0.25 0.25 0.25 0.25 )
( 0.25 0.25 0.25 0.25 )
( 0.25 0.25 0.25 0.25 )
( 0.25 0.25 0.25 0.25 ))
(( 0.072164945 0.13573883 0.12027492 0.6718213 )
( 0.008064516 0.06451613 0.088709675 0.83870965 )
( 0.002994012 0.09281437 0.21856287 0.6856288 )
( 0.19036698 0.25917435 0.22477065 0.3256881 ))
(( 0.07534247 0.01369863 0.0034246575 0.90753424 )
( 0.0027472528 0.0027472528 0.13186814 0.86263734 )
( 0.0054347827 0.0054347827 0.0054347827 0.9836956 )
( 0.0051020407 0.096938774 0.4489796 0.4489796 ))))
(((( 0.096791685 0.06124306 0.09618771 0.74577755 )
( 0.07660427 0.06839051 0.09894649 0.75605875 )
( 0.006615739 0.18793328 0.25778234 0.54766864 )
( 0.15159187 0.31345636 0.24990366 0.28504813 ))
(( 0.10035678 0.062166985 0.095357135 0.7421191 )
( 0.07418114 0.06866563 0.10388746 0.75326574 )
( 0.0069396254 0.18849757 0.27405736 0.5305054 )
( 0.16848886 0.33080795 0.23674183 0.26396134 ))
(( 0.08148148 0.07385621 0.10697168 0.7376906 )
( 0.08594319 0.07477543 0.102452055 0.73682934 )
( 0.013056093 0.22195359 0.2804642 0.4845261 )
( 0.17265902 0.3627025 0.18609245 0.27854604 ))
(( 0.14411765 0.014705882 0.10294118 0.7382353 )
( 0.14830509 0.04661017 0.095338985 0.70974576 )
( 0.007352941 0.036764707 0.31617647 0.6397059 )
( 0.08125 0.4875 0.2 0.23125 ))
(( 0.21511628 0.011627907 0.09883721 0.6744186 )
( 0.14453125 0.05078125 0.109375 0.6953125 )
( 0.01923077 0.01923077 0.17307693 0.78846157 )
( 0.14772727 0.27272728 0.4318182 0.14772727 ))
(( 0.112226896 0.086646765 0.12464378 0.67648256 )
( 0.09575724 0.09770155 0.10797861 0.6985626 )
( 0.031857613 0.25785223 0.30257255 0.40771762 )
( 0.22673002 0.35550684 0.18542884 0.2323343 ))
(( 0.25 0.25 0.25 0.25 )
( 0.25 0.25 0.25 0.25 )
( 0.25 0.25 0.25 0.25 )
( 0.25 0.25 0.25 0.25 ))
(( 0.25 0.25 0.25 0.25 )
( 0.25 0.25 0.25 0.25 )
( 0.25 0.25 0.25 0.25 )
( 0.25 0.25 0.25 0.25 ))
(( 0.25 0.25 0.25 0.25 )
( 0.25 0.25 0.25 0.25 )
( 0.25 0.25 0.25 0.25 )
( 0.25 0.25 0.25 0.25 )))
((( 0.075210586 0.06512482 0.081020646 0.77864397 )
( 0.039749663 0.08238682 0.10215233 0.7757112 )
( 7.2175596E-4 0.17298639 0.26402023 0.56227165 )
( 0.14900354 0.29160994 0.23607206 0.32331446 ))
(( 0.074331224 0.0635508 0.082806066 0.7793119 )
( 0.037958093 0.07564174 0.106727384 0.7796728 )
( 2.879896E-4 0.16734698 0.2678303 0.5645347 )
( 0.14869392 0.30152717 0.22760387 0.32217503 ))
(( 0.07396186 0.070486546 0.074229196 0.7813224 )
( 0.039596632 0.07512258 0.09889907 0.7863817 )
( 0.0017440593 0.14323087 0.24809243 0.60693264 )
( 0.14919493 0.26378897 0.21719767 0.36981842 ))
(( 0.06558935 0.08269962 0.11026616 0.7414449 )
( 0.033846155 0.10974359 0.12410256 0.7323077 )
( 0.010869565 0.26956522 0.27608696 0.44347826 )
( 0.16216215 0.2956081 0.22972973 0.3125 ))
(( 0.10942761 0.04882155 0.116161615 0.7255892 )
( 0.058122206 0.09538003 0.08941878 0.757079 )
( 0.00390625 0.16015625 0.296875 0.5390625 )
( 0.123563215 0.45114943 0.15229885 0.2729885 ))
(( 0.08406077 0.08198895 0.083011046 0.75093925 )
( 0.04728376 0.09748409 0.091680415 0.7635517 )
( 0.003017536 0.21618083 0.26673877 0.5140629 )
( 0.16685477 0.3124464 0.20215791 0.31854093 ))
(( 0.073076926 0.08846154 0.08846154 0.75 )
( 0.015306123 0.20918368 0.05612245 0.71938777 )
( 0.011363637 0.36363637 0.47727272 0.14772727 )
( 0.29464287 0.44642857 0.14285715 0.116071425 ))
(( 0.25 0.25 0.25 0.25 )
( 0.25 0.25 0.25 0.25 )
( 0.25 0.25 0.25 0.25 )
( 0.25 0.25 0.25 0.25 ))
(( 0.25 0.25 0.25 0.25 )
( 0.25 0.25 0.25 0.25 )
( 0.0625 0.0625 0.0625 0.8125 )
( 0.25 0.25 0.25 0.25 ))))
(((( 0.102665514 0.07088878 0.11406276 0.712383 )
( 0.085024476 0.084687315 0.11546718 0.71482104 )
( 0.018904317 0.25803128 0.303911 0.4191534 )
( 0.17499024 0.35124177 0.21512657 0.2586414 ))
(( 0.10143242 0.073764496 0.11437735 0.71042573 )
( 0.08341772 0.09045502 0.12316988 0.7029574 )
( 0.023947956 0.26082537 0.3095751 0.40565157 )
( 0.17899716 0.36550444 0.19347416 0.26202422 ))
(( 0.09640145 0.058104984 0.076262794 0.7692308 )
( 0.07613169 0.06001372 0.11042524 0.75342935 )
( 0.0033167496 0.13598673 0.3283582 0.5323383 )
( 0.14313984 0.32585752 0.280343 0.25065964 ))
(( 0.25 0.25 0.25 0.25 )
( 0.25 0.25 0.25 0.25 )
( 0.25 0.25 0.25 0.25 )
( 0.25 0.25 0.25 0.25 ))
(( 0.25 0.25 0.25 0.25 )
( 0.25 0.25 0.25 0.25 )
( 0.25 0.25 0.25 0.25 )
( 0.25 0.25 0.25 0.25 ))
(( 0.13862559 0.12405213 0.16919431 0.568128 )
( 0.12987167 0.16578358 0.1653126 0.53903216 )
( 0.1006064 0.35474092 0.26819184 0.27646086 )
( 0.2948918 0.3374972 0.18090564 0.18670534 ))
(( 0.25 0.25 0.25 0.25 )
( 0.25 0.25 0.25 0.25 )
( 0.25 0.25 0.25 0.25 )
( 0.25 0.25 0.25 0.25 ))
(( 0.25 0.25 0.25 0.25 )
( 0.25 0.25 0.25 0.25 )
( 0.25 0.25 0.25 0.25 )
( 0.25 0.25 0.25 0.25 ))
(( 0.25 0.25 0.25 0.25 )
( 0.25 0.25 0.25 0.25 )
( 0.25 0.25 0.25 0.25 )
( 0.25 0.25 0.25 0.25 )))
((( 0.06481846 0.06170405 0.07820029 0.7952772 )
( 0.03483389 0.08818784 0.09783618 0.7791421 )
( 0.0106584905 0.17303087 0.25782055 0.5584901 )
( 0.13533504 0.19231471 0.17848013 0.4938701 ))
(( 0.06080025 0.06385041 0.0753824 0.79996693 )
( 0.031862073 0.08309083 0.09131127 0.7937358 )
( 0.008832223 0.16286269 0.25541738 0.5728877 )
( 0.13525471 0.18564616 0.17954019 0.49955893 ))
(( 0.063846365 0.060896188 0.07826329 0.79699415 )
( 0.035173453 0.08235294 0.10099547 0.7814781 )
( 0.0131349685 0.17893043 0.27154538 0.53638923 )
( 0.14523734 0.21439798 0.17332076 0.4670439 ))
(( 0.08890331 0.07332901 0.09733939 0.74042827 )
( 0.07210732 0.12576859 0.11738402 0.68474007 )
( 0.030844156 0.2012987 0.30032468 0.46753246 )
( 0.1684492 0.18181819 0.19117647 0.45855615 ))
(( 0.25 0.25 0.25 0.25 )
( 0.25 0.25 0.25 0.25 )
( 0.25 0.25 0.25 0.25 )
( 0.25 0.25 0.25 0.25 ))
(( 0.07619733 0.08138279 0.09297803 0.74944186 )
( 0.049171608 0.12129503 0.11407509 0.7154583 )
( 0.030668605 0.26148257 0.26468024 0.4431686 )
( 0.16485317 0.21352522 0.17140517 0.45021644 ))
(( 0.25 0.25 0.25 0.25 )
( 0.25 0.25 0.25 0.25 )
( 0.25 0.25 0.25 0.25 )
( 0.25 0.25 0.25 0.25 ))
(( 0.25 0.25 0.25 0.25 )
( 0.25 0.25 0.25 0.25 )
( 0.25 0.25 0.25 0.25 )
( 0.25 0.25 0.25 0.25 ))
(( 0.25 0.25 0.25 0.25 )
( 0.25 0.25 0.25 0.25 )
( 0.25 0.25 0.25 0.25 )
( 0.25 0.25 0.25 0.25 )))))
((((( 0.06844106 0.4296578 0.2623574 0.23954372 )
( 0.06818182 0.2215909 0.23295455 0.47727272 )
( 0.16666667 0.75 0.041666668 0.041666668 )
( 0.51960784 0.12745099 0.23529412 0.11764706 ))
(( 0.5555556 0.11111111 0.11111111 0.22222222 )
( 0.25 0.25 0.25 0.25 )
( 0.0952381 0.8095238 0.04761905 0.04761905 )
( 0.2173913 0.5217391 0.2173913 0.04347826 ))
(( 0.25 0.25 0.25 0.25 )
( 0.16666667 0.5 0.16666667 0.16666667 )
( 0.25 0.25 0.25 0.25 )
( 0.25 0.25 0.25 0.25 ))
(( 0.25 0.25 0.25 0.25 )
( 0.25 0.25 0.25 0.25 )
( 0.25 0.25 0.25 0.25 )
( 0.25 0.25 0.25 0.25 ))
(( 0.25 0.25 0.25 0.25 )
( 0.25 0.25 0.25 0.25 )
( 0.25 0.25 0.25 0.25 )
( 0.25 0.25 0.25 0.25 ))
(( 0.11111111 0.5555556 0.2777778 0.055555556 )
( 0.8378379 0.10810812 0.02702703 0.02702703 )
( 0.25 0.25 0.25 0.25 )
( 0.2 0.6 0.1 0.1 ))
(( 0.25 0.25 0.25 0.25 )
( 0.25 0.25 0.25 0.25 )
( 0.25 0.25 0.25 0.25 )
( 0.25 0.25 0.25 0.25 ))
(( 0.11111111 0.5555556 0.22222222 0.11111111 )
( 0.25 0.25 0.25 0.25 )
( 0.25 0.25 0.25 0.25 )
( 0.25 0.25 0.25 0.25 ))
(( 0.25 0.25 0.25 0.25 )
( 0.25 0.25 0.25 0.25 )
( 0.25 0.25 0.25 0.25 )
( 0.25 0.25 0.25 0.25 )))
((( 0.14224137 0.24568966 0.30747128 0.3045977 )
( 0.10121457 0.41025642 0.2388664 0.24966262 )
( 0.25490198 0.5980392 0.11764706 0.029411765 )
( 0.32098764 0.43209878 0.14814815 0.09876543 ))
(( 0.19463088 0.32214764 0.26174498 0.22147651 )
( 0.13207547 0.1981132 0.4528302 0.21698113 )
( 0.54347825 0.32608697 0.10869565 0.02173913 )
( 0.1764706 0.47058824 0.23529412 0.11764706 ))
(( 0.05 0.075 0.225 0.65 )
( 0.020833334 0.25 0.4375 0.29166666 )
( 0.2857143 0.61904764 0.04761905 0.04761905 )
( 0.25 0.25 0.25 0.25 ))
(( 0.25 0.25 0.25 0.25 )
( 0.25 0.25 0.25 0.25 )
( 0.33333334 0.33333334 0.16666667 0.16666667 )
( 0.25 0.25 0.25 0.25 ))
(( 0.25 0.25 0.25 0.25 )
( 0.25 0.25 0.25 0.25 )
( 0.25 0.25 0.25 0.25 )
( 0.25 0.25 0.25 0.25 ))
(( 0.078125 0.171875 0.296875 0.453125 )
( 0.82758623 0.10344828 0.03448276 0.03448276 )
( 0.6666667 0.11111111 0.11111111 0.11111111 )
( 0.25000003 0.5833334 0.08333334 0.08333334 ))
(( 0.25 0.25 0.25 0.25 )
( 0.78571427 0.071428575 0.071428575 0.071428575 )
( 0.25 0.25 0.25 0.25 )
( 0.4 0.2 0.2 0.2 ))
(( 0.25 0.25 0.25 0.25 )
( 0.25 0.25 0.25 0.25 )
( 0.25 0.25 0.25 0.25 )
( 0.25 0.25 0.25 0.25 ))
(( 0.25 0.25 0.25 0.25 )
( 0.25 0.25 0.25 0.25 )
( 0.25 0.25 0.25 0.25 )
( 0.25 0.25 0.25 0.25 ))))
(((( 0.6770833 0.30208334 0.010416667 0.010416667 )
( 0.35371178 0.5895197 0.048034936 0.008733625 )
( 0.2 0.4 0.2 0.2 )
( 0.8666667 0.08888889 0.022222223 0.022222223 ))
(( 0.6363636 0.27272728 0.045454547 0.045454547 )
( 0.6363636 0.13636364 0.18181819 0.045454547 )
( 0.05882353 0.8235294 0.05882353 0.05882353 )
( 0.6666667 0.11111111 0.11111111 0.11111111 ))
(( 0.25 0.25 0.25 0.25 )
( 0.25 0.25 0.25 0.25 )
( 0.25 0.25 0.25 0.25 )
( 0.25 0.25 0.25 0.25 ))
(( 0.25 0.25 0.25 0.25 )
( 0.25 0.25 0.25 0.25 )
( 0.25 0.25 0.25 0.25 )
( 0.25 0.25 0.25 0.25 ))
(( 0.25 0.25 0.25 0.25 )
( 0.25 0.25 0.25 0.25 )
( 0.25 0.25 0.25 0.25 )
( 0.25 0.25 0.25 0.25 ))
(( 0.25 0.25 0.25 0.25 )
( 0.7 0.1 0.1 0.1 )
( 0.25 0.25 0.25 0.25 )
( 0.5714286 0.14285715 0.14285715 0.14285715 ))
(( 0.25 0.25 0.25 0.25 )
( 0.25 0.25 0.25 0.25 )
( 0.25 0.25 0.25 0.25 )
( 0.25 0.25 0.25 0.25 ))
(( 0.25 0.25 0.25 0.25 )
( 0.25 0.25 0.25 0.25 )
( 0.25 0.25 0.25 0.25 )
( 0.25 0.25 0.25 0.25 ))
(( 0.25 0.25 0.25 0.25 )
( 0.25 0.25 0.25 0.25 )
( 0.25 0.25 0.25 0.25 )
( 0.25 0.25 0.25 0.25 )))
((( 0.41916168 0.52395207 0.047904193 0.008982036 )
( 0.4292453 0.4292453 0.056603774 0.08490566 )
( 0.7532467 0.15584415 0.077922076 0.012987013 )
( 0.92 0.04 0.02 0.02 ))
(( 0.53333336 0.33333334 0.06666667 0.06666667 )
( 0.49315068 0.20547946 0.15068494 0.15068494 )
( 0.4 0.2 0.2 0.2 )
( 0.25 0.25 0.25 0.25 ))
(( 0.7692308 0.07692308 0.07692308 0.07692308 )
( 0.25 0.25 0.25 0.25 )
( 0.25 0.25 0.25 0.25 )
( 0.25 0.25 0.25 0.25 ))
(( 0.25 0.25 0.25 0.25 )
( 0.16666667 0.5 0.16666667 0.16666667 )
( 0.14285715 0.14285715 0.42857143 0.2857143 )
( 0.25 0.25 0.25 0.25 ))
(( 0.25 0.25 0.25 0.25 )
( 0.25 0.25 0.25 0.25 )
( 0.25 0.25 0.25 0.25 )
( 0.25 0.25 0.25 0.25 ))
(( 0.6666667 0.11111111 0.11111111 0.11111111 )
( 0.6666667 0.2 0.1 0.033333335 )
( 0.2 0.2 0.4 0.2 )
( 0.5714286 0.14285715 0.14285715 0.14285715 ))
(( 0.7 0.1 0.1 0.1 )
( 0.25 0.25 0.25 0.25 )
( 0.5 0.16666667 0.16666667 0.16666667 )
( 0.25 0.25 0.25 0.25 ))
(( 0.25 0.25 0.25 0.25 )
( 0.25 0.25 0.25 0.25 )
( 0.16666667 0.16666667 0.33333334 0.33333334 )
( 0.25 0.25 0.25 0.25 ))
(( 0.25 0.25 0.25 0.25 )
( 0.25 0.25 0.25 0.25 )
( 0.25 0.25 0.25 0.25 )
( 0.25 0.25 0.25 0.25 ))))
(((( 0.22222222 0.09259259 0.25925925 0.42592594 )
( 0.0034364262 0.04467354 0.15120275 0.8006873 )
( 0.33333334 0.52 0.013333334 0.13333334 )
( 0.5 0.3888889 0.055555556 0.055555556 ))
(( 0.33333334 0.15384616 0.20512821 0.30769232 )
( 0.025 0.025 0.1 0.85 )
( 0.48000002 0.30000004 0.20000002 0.020000001 )
( 0.25 0.25 0.25 0.25 ))
(( 0.25 0.25 0.25 0.25 )
( 0.11111111 0.22222222 0.44444445 0.22222222 )
( 0.25 0.25 0.25 0.25 )
( 0.25 0.25 0.25 0.25 ))
(( 0.25 0.25 0.25 0.25 )
( 0.25 0.25 0.25 0.25 )
( 0.25 0.25 0.25 0.25 )
( 0.25 0.25 0.25 0.25 ))
(( 0.25 0.25 0.25 0.25 )
( 0.25 0.25 0.25 0.25 )
( 0.25 0.25 0.25 0.25 )
( 0.25 0.25 0.25 0.25 ))
(( 0.7894737 0.10526316 0.05263158 0.05263158 )
( 0.25 0.25 0.25 0.25 )
( 0.25 0.25 0.25 0.25 )
( 0.25 0.25 0.25 0.25 ))
(( 0.25 0.25 0.25 0.25 )
( 0.25 0.25 0.25 0.25 )
( 0.25 0.25 0.25 0.25 )
( 0.25 0.25 0.25 0.25 ))
(( 0.25 0.25 0.25 0.25 )
( 0.25 0.25 0.25 0.25 )
( 0.25 0.25 0.25 0.25 )
( 0.25 0.25 0.25 0.25 ))
(( 0.25 0.25 0.25 0.25 )
( 0.25 0.25 0.25 0.25 )
( 0.25 0.25 0.25 0.25 )
( 0.25 0.25 0.25 0.25 )))
((( 0.042183623 0.034739453 0.13151364 0.7915633 )
( 0.0051513202 0.025112685 0.0386349 0.9311011 )
( 0.014354067 0.086124405 0.22966507 0.6698565 )
( 0.035714287 0.39285713 0.26785713 0.30357143 ))
(( 0.005263158 0.010526316 0.094736844 0.8894737 )
( 0.0021097045 0.008438818 0.01898734 0.9704641 )
( 0.018518519 0.16666667 0.46296296 0.35185185 )
( 0.07317073 0.09756097 0.12195122 0.70731705 ))
(( 0.01923077 0.03846154 0.057692308 0.88461536 )
( 0.04 0.04 0.2 0.72 )
( 0.125 0.125 0.5 0.25 )
( 0.07692308 0.7307692 0.07692308 0.115384616 ))
(( 0.25 0.25 0.25 0.25 )
( 0.2 0.2 0.2 0.4 )
( 0.25 0.25 0.25 0.25 )
( 0.25 0.25 0.25 0.25 ))
(( 0.25 0.25 0.25 0.25 )
( 0.25 0.25 0.25 0.25 )
( 0.25 0.25 0.25 0.25 )
( 0.25 0.25 0.25 0.25 ))
(( 0.018181818 0.10909091 0.18181819 0.6909091 )
( 0.060606062 0.015151516 0.015151516 0.90909094 )
( 0.041666668 0.125 0.45833334 0.375 )
( 0.14285715 0.5714286 0.14285715 0.14285715 ))
(( 0.25 0.25 0.25 0.25 )
( 0.25 0.25 0.25 0.25 )
( 0.25 0.25 0.25 0.25 )
( 0.25 0.25 0.25 0.25 ))
(( 0.25 0.25 0.25 0.25 )
( 0.25 0.25 0.25 0.25 )
( 0.045454547 0.045454547 0.22727273 0.6818182 )
( 0.25 0.25 0.25 0.25 ))
(( 0.25 0.25 0.25 0.25 )
( 0.25 0.25 0.25 0.25 )
( 0.25 0.25 0.25 0.25 )
( 0.25 0.25 0.25 0.25 ))))
(((( 0.012 0.084 0.064 0.84 )
( 0.0031055901 0.07763975 0.049689442 0.8695652 )
( 0.033898305 0.37288135 0.16949153 0.42372882 )
( 0.044444446 0.36296296 0.16296296 0.42962962 ))
(( 0.021276595 0.06382979 0.04255319 0.87234044 )
( 0.014084507 0.014084507 0.15492958 0.8169014 )
( 0.033333335 0.1 0.33333334 0.53333336 )
( 0.05263158 0.5263158 0.05263158 0.36842105 ))
(( 0.25 0.25 0.25 0.25 )
( 0.25 0.25 0.25 0.25 )
( 0.1 0.1 0.5 0.3 )
( 0.25 0.25 0.25 0.25 ))
(( 0.25 0.25 0.25 0.25 )
( 0.25 0.25 0.25 0.25 )
( 0.25 0.25 0.25 0.25 )
( 0.25 0.25 0.25 0.25 ))
(( 0.25 0.25 0.25 0.25 )
( 0.25 0.25 0.25 0.25 )
( 0.25 0.25 0.25 0.25 )
( 0.25 0.25 0.25 0.25 ))
(( 0.11111111 0.22222222 0.11111111 0.5555556 )
( 0.25 0.25 0.25 0.25 )
( 0.25 0.25 0.25 0.25 )
( 0.625 0.125 0.125 0.125 ))
(( 0.25 0.25 0.25 0.25 )
( 0.25 0.25 0.25 0.25 )
( 0.25 0.25 0.25 0.25 )
( 0.25 0.25 0.25 0.25 ))
(( 0.25 0.25 0.25 0.25 )
( 0.25 0.25 0.25 0.25 )
( 0.25 0.25 0.25 0.25 )
( 0.25 0.25 0.25 0.25 ))
(( 0.25 0.25 0.25 0.25 )
( 0.25 0.25 0.25 0.25 )
( 0.25 0.25 0.25 0.25 )
( 0.25 0.25 0.25 0.25 )))
((( 0.015936255 0.05258964 0.10517928 0.82629484 )
( 7.173601E-4 0.027259685 0.046628408 0.92539454 )
( 0.0031545742 0.362776 0.4511041 0.1829653 )
( 0.19823788 0.33920705 0.23348017 0.2290749 ))
(( 0.026200874 0.013100437 0.09170306 0.8689956 )
( 0.003787879 0.007575758 0.10606061 0.88257575 )
( 0.013333334 0.26666668 0.5466667 0.17333333 )
( 0.020833334 0.33333334 0.1875 0.45833334 ))
(( 0.041666668 0.041666668 0.041666668 0.875 )
( 0.0625 0.0625 0.1875 0.6875 )
( 0.25 0.25 0.25 0.25 )
( 0.2 0.2 0.4 0.2 ))
(( 0.14285715 0.14285715 0.42857143 0.2857143 )
( 0.25 0.25 0.25 0.25 )
( 0.25 0.25 0.25 0.25 )
( 0.25 0.25 0.25 0.25 ))
(( 0.25 0.25 0.25 0.25 )
( 0.25 0.25 0.25 0.25 )
( 0.25 0.25 0.25 0.25 )
( 0.25 0.25 0.25 0.25 ))
(( 0.012048192 0.18072289 0.09638554 0.7108434 )
( 0.011111111 0.011111111 0.033333335 0.9444444 )
( 0.2 0.2 0.2 0.4 )
( 0.09090909 0.6363636 0.18181819 0.09090909 ))
(( 0.25 0.25 0.25 0.25 )
( 0.25 0.25 0.25 0.25 )
( 0.25 0.25 0.25 0.25 )
( 0.25 0.25 0.25 0.25 ))
(( 0.25 0.25 0.25 0.25 )
( 0.25 0.25 0.25 0.25 )
( 0.25 0.25 0.25 0.25 )
( 0.25 0.25 0.25 0.25 ))
(( 0.25 0.25 0.25 0.25 )
( 0.25 0.25 0.25 0.25 )
( 0.25 0.25 0.25 0.25 )
( 0.25 0.25 0.25 0.25 ))))
(((( 0.03196347 0.0913242 0.08219178 0.79452056 )
( 0.0027027028 0.016216217 0.072972976 0.9081081 )
( 0.07692308 0.3846154 0.30769232 0.23076923 )
( 0.1764706 0.5147059 0.11764706 0.19117647 ))
(( 0.010526316 0.05263158 0.17894737 0.75789475 )
( 0.015873017 0.015873017 0.015873017 0.95238096 )
( 0.25 0.25 0.25 0.25 )
( 0.071428575 0.14285715 0.5714286 0.21428572 ))
(( 0.1 0.1 0.1 0.7 )
( 0.125 0.125 0.125 0.625 )
( 0.25 0.25 0.25 0.25 )
( 0.25 0.25 0.25 0.25 ))
(( 0.25 0.25 0.25 0.25 )
( 0.25 0.25 0.25 0.25 )
( 0.25 0.25 0.25 0.25 )
( 0.25 0.25 0.25 0.25 ))
(( 0.25 0.25 0.25 0.25 )
( 0.25 0.25 0.25 0.25 )
( 0.25 0.25 0.25 0.25 )
( 0.25 0.25 0.25 0.25 ))
(( 0.083333336 0.083333336 0.083333336 0.75 )
( 0.4 0.2 0.2 0.2 )
( 0.25 0.25 0.25 0.25 )
( 0.14285715 0.42857143 0.14285715 0.2857143 ))
(( 0.25 0.25 0.25 0.25 )
( 0.25 0.25 0.25 0.25 )
( 0.25 0.25 0.25 0.25 )
( 0.25 0.25 0.25 0.25 ))
(( 0.25 0.25 0.25 0.25 )
( 0.25 0.25 0.25 0.25 )
( 0.25 0.25 0.25 0.25 )
( 0.25 0.25 0.25 0.25 ))
(( 0.25 0.25 0.25 0.25 )
( 0.25 0.25 0.25 0.25 )
( 0.25 0.25 0.25 0.25 )
( 0.25 0.25 0.25 0.25 )))
((( 0.0071868584 0.030800821 0.05492813 0.90708417 )
( 0.0047393367 0.02085308 0.036018956 0.93838865 )
( 0.009708738 0.106796116 0.44660193 0.4368932 )
( 0.03773585 0.2327044 0.2893082 0.44025156 ))
(( 0.005154639 0.010309278 0.025773196 0.9587629 )
( 0.0042918455 0.021459227 0.14592275 0.82832617 )
( 0.055555556 0.055555556 0.7222222 0.16666667 )
( 0.10526316 0.15789473 0.42105263 0.31578946 ))
(( 0.027777778 0.083333336 0.055555556 0.8333333 )
( 0.027027028 0.027027028 0.027027028 0.9189189 )
( 0.14285713 0.42857137 0.28571427 0.14285713 )
( 0.16666667 0.16666667 0.5 0.16666667 ))
(( 0.25 0.25 0.25 0.25 )
( 0.25 0.25 0.25 0.25 )
( 0.25 0.25 0.25 0.25 )
( 0.25 0.25 0.25 0.25 ))
(( 0.25 0.25 0.25 0.25 )
( 0.25 0.25 0.25 0.25 )
( 0.25 0.25 0.25 0.25 )
( 0.25 0.25 0.25 0.25 ))
(( 0.012820513 0.012820513 0.012820513 0.96153843 )
( 0.083333336 0.083333336 0.083333336 0.75 )
( 0.25 0.25 0.25 0.25 )
( 0.16666667 0.16666667 0.16666667 0.5 ))
(( 0.25 0.25 0.25 0.25 )
( 0.25 0.25 0.25 0.25 )
( 0.25 0.25 0.25 0.25 )
( 0.25 0.25 0.25 0.25 ))
(( 0.25 0.25 0.25 0.25 )
( 0.25 0.25 0.25 0.25 )
( 0.25 0.25 0.25 0.25 )
( 0.25 0.25 0.25 0.25 ))
(( 0.25 0.25 0.25 0.25 )
( 0.25 0.25 0.25 0.25 )
( 0.25 0.25 0.25 0.25 )
( 0.25 0.25 0.25 0.25 ))))))
(((((( 0.03196347 0.34246576 0.29680365 0.32876712 )
( 0.11585366 0.15243903 0.29268292 0.4390244 )
( 0.5 0.42307693 0.03846154 0.03846154 )
( 0.21698113 0.2735849 0.3773585 0.13207547 ))
(( 0.09523808 0.47619042 0.38095233 0.04761904 )
( 0.25 0.25 0.25 0.25 )
( 0.4 0.4 0.1 0.1 )
( 0.2173913 0.6086956 0.13043478 0.04347826 ))
(( 0.25 0.25 0.25 0.25 )
( 0.18181819 0.6363636 0.09090909 0.09090909 )
( 0.42857137 0.14285713 0.28571427 0.14285713 )
( 0.25 0.25 0.25 0.25 ))
(( 0.25 0.25 0.25 0.25 )
( 0.25 0.25 0.25 0.25 )
( 0.4117647 0.47058824 0.05882353 0.05882353 )
( 0.25 0.25 0.25 0.25 ))
(( 0.25 0.25 0.25 0.25 )
( 0.25 0.25 0.25 0.25 )
( 0.25 0.25 0.25 0.25 )
( 0.25 0.25 0.25 0.25 ))
(( 0.25 0.25 0.25 0.25 )
( 0.7714286 0.15714286 0.057142857 0.014285714 )
( 0.25 0.25 0.25 0.25 )
( 0.2 0.6 0.1 0.1 ))
(( 0.25 0.25 0.25 0.25 )
( 0.25 0.25 0.25 0.25 )
( 0.25 0.25 0.25 0.25 )
( 0.25 0.25 0.25 0.25 ))
(( 0.25 0.25 0.25 0.25 )
( 0.25 0.25 0.25 0.25 )
( 0.25 0.25 0.25 0.25 )
( 0.25 0.25 0.25 0.25 ))
(( 0.25 0.25 0.25 0.25 )
( 0.25 0.25 0.25 0.25 )
( 0.25 0.25 0.25 0.25 )
( 0.25 0.25 0.25 0.25 )))
((( 0.07131783 0.1875969 0.28062016 0.4604651 )
( 0.049701788 0.3856859 0.27037773 0.2942346 )
( 0.25454545 0.44545454 0.25454545 0.045454547 )
( 0.25 0.33695653 0.2173913 0.19565217 ))
(( 0.11504425 0.17699115 0.36283186 0.34513274 )
( 0.083333336 0.3690476 0.25 0.29761904 )
( 0.61538464 0.12820514 0.23076923 0.025641026 )
( 0.6818182 0.045454547 0.09090909 0.18181819 ))
(( 0.14285713 0.14285713 0.57142854 0.14285713 )
( 0.021276595 0.12765957 0.61702126 0.23404256 )
( 0.14285713 0.14285713 0.57142854 0.14285713 )
( 0.25 0.25 0.25 0.25 ))
(( 0.25 0.25 0.25 0.25 )
( 0.25 0.25 0.25 0.25 )
( 0.25 0.25 0.25 0.25 )
( 0.25 0.25 0.25 0.25 ))
(( 0.25 0.25 0.25 0.25 )
( 0.25 0.25 0.25 0.25 )
( 0.25 0.25 0.25 0.25 )
( 0.25 0.25 0.25 0.25 ))
(( 0.121212125 0.75757575 0.09090909 0.030303031 )
( 0.75 0.125 0.0625 0.0625 )
( 0.75000006 0.08333334 0.08333334 0.08333334 )
( 0.25 0.25 0.25 0.25 ))
(( 0.4 0.4 0.1 0.1 )
( 0.25 0.25 0.25 0.25 )
( 0.78571427 0.071428575 0.071428575 0.071428575 )
( 0.25 0.25 0.25 0.25 ))
(( 0.25 0.25 0.25 0.25 )
( 0.25 0.25 0.25 0.25 )
( 0.25 0.25 0.25 0.25 )
( 0.25 0.25 0.25 0.25 ))
(( 0.25 0.25 0.25 0.25 )
( 0.25 0.25 0.25 0.25 )
( 0.25 0.25 0.25 0.25 )
( 0.25 0.25 0.25 0.25 ))))
(((( 0.5 0.4642857 0.017857144 0.017857144 )
( 0.5232558 0.4651163 0.0058139535 0.0058139535 )
( 0.6896552 0.27586207 0.01724138 0.01724138 )
( 0.6666667 0.22222222 0.055555556 0.055555556 ))
(( 0.7058824 0.1764706 0.05882353 0.05882353 )
( 0.57142854 0.28571427 0.07142857 0.07142857 )
( 0.25 0.25 0.25 0.25 )
( 0.78571427 0.071428575 0.071428575 0.071428575 ))
(( 0.25 0.25 0.25 0.25 )
( 0.25 0.25 0.25 0.25 )
( 0.25 0.25 0.25 0.25 )
( 0.25 0.25 0.25 0.25 ))
(( 0.25 0.25 0.25 0.25 )
( 0.25 0.25 0.25 0.25 )
( 0.25 0.25 0.25 0.25 )
( 0.25 0.25 0.25 0.25 ))
(( 0.25 0.25 0.25 0.25 )
( 0.25 0.25 0.25 0.25 )
( 0.25 0.25 0.25 0.25 )
( 0.25 0.25 0.25 0.25 ))
(( 0.25 0.25 0.25 0.25 )
( 0.85714287 0.04761905 0.04761905 0.04761905 )
( 0.25 0.25 0.25 0.25 )
( 0.7 0.1 0.1 0.1 ))
(( 0.25 0.25 0.25 0.25 )
( 0.25 0.25 0.25 0.25 )
( 0.25 0.25 0.25 0.25 )
( 0.25 0.25 0.25 0.25 ))
(( 0.25 0.25 0.25 0.25 )
( 0.25 0.25 0.25 0.25 )
( 0.25 0.25 0.25 0.25 )
( 0.25 0.25 0.25 0.25 ))
(( 0.25 0.25 0.25 0.25 )
( 0.25 0.25 0.25 0.25 )
( 0.25 0.25 0.25 0.25 )
( 0.25 0.25 0.25 0.25 )))
((( 0.51291513 0.32472324 0.11439114 0.04797048 )
( 0.43382353 0.32352942 0.121323526 0.121323526 )
( 0.13793103 0.5862069 0.1724138 0.10344828 )
( 0.95604396 0.021978023 0.010989011 0.010989011 ))
(( 0.1 0.4 0.4 0.1 )
( 0.51851857 0.23456791 0.13580248 0.11111112 )
( 0.625 0.125 0.125 0.125 )
( 0.25 0.25 0.25 0.25 ))
(( 0.5454545 0.27272725 0.090909086 0.090909086 )
( 0.25 0.25 0.25 0.25 )
( 0.25 0.25 0.25 0.25 )
( 0.25 0.25 0.25 0.25 ))
(( 0.25 0.25 0.25 0.25 )
( 0.5 0.25 0.125 0.125 )
( 0.25 0.25 0.25 0.25 )
( 0.25 0.25 0.25 0.25 ))
(( 0.25 0.25 0.25 0.25 )
( 0.25 0.25 0.25 0.25 )
( 0.25 0.25 0.25 0.25 )
( 0.25 0.25 0.25 0.25 ))
(( 0.53846157 0.30769232 0.07692308 0.07692308 )
( 0.3333333 0.23809521 0.38095233 0.04761904 )
( 0.25 0.25 0.25 0.25 )
( 0.25 0.25 0.25 0.25 ))
(( 0.25 0.25 0.25 0.25 )
( 0.25 0.25 0.25 0.25 )
( 0.25 0.25 0.25 0.25 )
( 0.25 0.25 0.25 0.25 ))
(( 0.25 0.25 0.25 0.25 )
( 0.25 0.25 0.25 0.25 )
( 0.25 0.25 0.25 0.25 )
( 0.25 0.25 0.25 0.25 ))
(( 0.25 0.25 0.25 0.25 )
( 0.25 0.25 0.25 0.25 )
( 0.25 0.25 0.25 0.25 )
( 0.25 0.25 0.25 0.25 ))))
(((( 0.20652173 0.11956522 0.14130434 0.5326087 )
( 0.01775148 0.1597633 0.2366864 0.5857988 )
( 0.04347826 0.73913044 0.19565217 0.02173913 )
( 0.19402985 0.6268657 0.1641791 0.014925373 ))
(( 0.375 0.03125 0.15625 0.4375 )
( 0.14634147 0.024390245 0.04878049 0.78048784 )
( 0.07692307 0.5384615 0.3076923 0.07692307 )
( 0.33333334 0.41666666 0.083333336 0.16666667 ))
(( 0.25 0.25 0.25 0.25 )
( 0.25 0.25 0.25 0.25 )
( 0.25 0.25 0.25 0.25 )
( 0.25 0.25 0.25 0.25 ))
(( 0.25 0.25 0.25 0.25 )
( 0.09090909 0.09090909 0.6363636 0.18181819 )
( 0.09090909 0.09090909 0.09090909 0.72727275 )
( 0.25 0.25 0.25 0.25 ))
(( 0.25 0.25 0.25 0.25 )
( 0.25 0.25 0.25 0.25 )
( 0.25 0.25 0.25 0.25 )
( 0.25 0.25 0.25 0.25 ))
(( 0.25 0.25 0.25 0.25 )
( 0.25 0.25 0.25 0.25 )
( 0.25 0.25 0.25 0.25 )
( 0.25 0.25 0.25 0.25 ))
(( 0.25 0.25 0.25 0.25 )
( 0.25 0.25 0.25 0.25 )
( 0.25 0.25 0.25 0.25 )
( 0.25 0.25 0.25 0.25 ))
(( 0.25 0.25 0.25 0.25 )
( 0.25 0.25 0.25 0.25 )
( 0.25 0.25 0.25 0.25 )
( 0.25 0.25 0.25 0.25 ))
(( 0.25 0.25 0.25 0.25 )
( 0.25 0.25 0.25 0.25 )
( 0.25 0.25 0.25 0.25 )
( 0.25 0.25 0.25 0.25 )))
((( 0.019908117 0.012251149 0.045941807 0.9218989 )
( 0.0145002585 0.025375454 0.042465042 0.9176592 )
( 0.004405286 0.07488987 0.27312776 0.6475771 )
( 0.1097561 0.5 0.15853658 0.23170732 ))
(( 0.005050505 0.005050505 0.030303031 0.959596 )
( 0.002283105 0.034246575 0.06849315 0.89497715 )
( 0.0125 0.0375 0.0625 0.8875 )
( 0.33802816 0.22535211 0.1971831 0.23943663 ))
(( 0.018518519 0.018518519 0.11111111 0.8518519 )
( 0.08108108 0.1891892 0.027027028 0.7027027 )
( 0.06666667 0.06666667 0.06666667 0.8 )
( 0.0625 0.625 0.0625 0.25 ))
(( 0.25 0.25 0.25 0.25 )
( 0.071428575 0.071428575 0.071428575 0.78571427 )
( 0.25 0.25 0.25 0.25 )
( 0.25 0.25 0.25 0.25 ))
(( 0.25 0.25 0.25 0.25 )
( 0.25 0.25 0.25 0.25 )
( 0.25 0.25 0.25 0.25 )
( 0.25 0.25 0.25 0.25 ))
(( 0.016666668 0.05 0.2 0.73333335 )
( 0.13829787 0.13829787 0.08510638 0.63829786 )
( 0.028571429 0.057142857 0.45714286 0.45714286 )
( 0.25 0.25 0.25 0.25 ))
(( 0.25 0.25 0.25 0.25 )
( 0.25 0.25 0.25 0.25 )
( 0.25 0.25 0.25 0.25 )
( 0.25 0.25 0.25 0.25 ))
(( 0.25 0.25 0.25 0.25 )
( 0.25 0.25 0.25 0.25 )
( 0.25 0.25 0.25 0.25 )
( 0.25 0.25 0.25 0.25 ))
(( 0.25 0.25 0.25 0.25 )
( 0.25 0.25 0.25 0.25 )
( 0.25 0.25 0.25 0.25 )
( 0.25 0.25 0.25 0.25 ))))
(((( 0.023041476 0.06451613 0.03686636 0.875576 )
( 0.035598706 0.13592233 0.093851134 0.73462784 )
( 0.016666668 0.083333336 0.51666665 0.38333333 )
( 0.010869565 0.45652175 0.11956522 0.41304347 ))
(( 0.035714287 0.035714287 0.035714287 0.89285713 )
( 0.016949153 0.016949153 0.18644068 0.779661 )
( 0.04761905 0.0952381 0.33333334 0.52380955 )
( 0.04347826 0.04347826 0.2173913 0.6956522 ))
(( 0.25 0.25 0.25 0.25 )
( 0.25 0.25 0.25 0.25 )
( 0.1 0.1 0.6 0.2 )
( 0.16666667 0.16666667 0.16666667 0.5 ))
(( 0.25 0.25 0.25 0.25 )
( 0.25 0.25 0.25 0.25 )
( 0.25 0.25 0.25 0.25 )
( 0.25 0.25 0.25 0.25 ))
(( 0.25 0.25 0.25 0.25 )
( 0.25 0.25 0.25 0.25 )
( 0.25 0.25 0.25 0.25 )
( 0.25 0.25 0.25 0.25 ))
(( 0.14285715 0.14285715 0.14285715 0.5714286 )
( 0.125 0.125 0.125 0.625 )
( 0.25 0.25 0.25 0.25 )
( 0.25 0.25 0.25 0.25 ))
(( 0.25 0.25 0.25 0.25 )
( 0.25 0.25 0.25 0.25 )
( 0.25 0.25 0.25 0.25 )
( 0.25 0.25 0.25 0.25 ))
(( 0.25 0.25 0.25 0.25 )
( 0.25 0.25 0.25 0.25 )
( 0.25 0.25 0.25 0.25 )
( 0.25 0.25 0.25 0.25 ))
(( 0.25 0.25 0.25 0.25 )
( 0.25 0.25 0.25 0.25 )
( 0.25 0.25 0.25 0.25 )
( 0.25 0.25 0.25 0.25 )))
((( 0.02369281 0.050653595 0.08905229 0.8366013 )
( 0.001978892 0.048153035 0.08575198 0.8641161 )
( 0.004132231 0.20247933 0.30578512 0.4876033 )
( 0.15934066 0.3021978 0.104395606 0.43406594 ))
(( 0.04761905 0.00952381 0.071428575 0.87142855 )
( 0.0046296297 0.018518519 0.09259259 0.8842593 )
( 0.03960396 0.05940594 0.15841584 0.7425743 )
( 0.016949153 0.2881356 0.2881356 0.40677965 ))
(( 0.09090909 0.09090909 0.09090909 0.72727275 )
( 0.04347826 0.04347826 0.04347826 0.8695652 )
( 0.14285715 0.2857143 0.14285715 0.42857143 )
( 0.16666667 0.16666667 0.16666667 0.5 ))
(( 0.1 0.1 0.6 0.2 )
( 0.25 0.25 0.25 0.25 )
( 0.25 0.25 0.25 0.25 )
( 0.25 0.25 0.25 0.25 ))
(( 0.25 0.25 0.25 0.25 )
( 0.25 0.25 0.25 0.25 )
( 0.25 0.25 0.25 0.25 )
( 0.25 0.25 0.25 0.25 ))
(( 0.033898305 0.033898305 0.22033899 0.7118644 )
( 0.012048192 0.012048192 0.036144577 0.939759 )
( 0.05 0.15 0.75 0.05 )
( 0.16666667 0.33333334 0.33333334 0.16666667 ))
(( 0.25 0.25 0.25 0.25 )
( 0.25 0.25 0.25 0.25 )
( 0.25 0.25 0.25 0.25 )
( 0.25 0.25 0.25 0.25 ))
(( 0.25 0.25 0.25 0.25 )
( 0.25 0.25 0.25 0.25 )
( 0.25 0.25 0.25 0.25 )
( 0.25 0.25 0.25 0.25 ))
(( 0.25 0.25 0.25 0.25 )
( 0.25 0.25 0.25 0.25 )
( 0.25 0.25 0.25 0.25 )
( 0.25 0.25 0.25 0.25 ))))
(((( 0.028368793 0.0070921984 0.04255319 0.9219858 )
( 0.0028653296 0.014326648 0.034383953 0.94842404 )
( 0.21428572 0.14285715 0.14285715 0.5 )
( 0.11627907 0.44186047 0.27906978 0.1627907 ))
(( 0.019607844 0.019607844 0.039215688 0.92156863 )
( 0.075 0.1625 0.15 0.6125 )
( 0.06666667 0.06666667 0.06666667 0.8 )
( 0.16666667 0.16666667 0.33333334 0.33333334 ))
(( 0.0625 0.0625 0.0625 0.8125 )
( 0.25 0.25 0.25 0.25 )
( 0.25 0.25 0.25 0.25 )
( 0.25 0.25 0.25 0.25 ))
(( 0.25 0.25 0.25 0.25 )
( 0.25 0.25 0.25 0.25 )
( 0.25 0.25 0.25 0.25 )
( 0.25 0.25 0.25 0.25 ))
(( 0.25 0.25 0.25 0.25 )
( 0.25 0.25 0.25 0.25 )
( 0.25 0.25 0.25 0.25 )
( 0.25 0.25 0.25 0.25 ))
(( 0.083333336 0.083333336 0.083333336 0.75 )
( 0.125 0.5 0.25 0.125 )
( 0.25 0.25 0.25 0.25 )
( 0.25 0.375 0.125 0.25 ))
(( 0.25 0.25 0.25 0.25 )
( 0.25 0.25 0.25 0.25 )
( 0.25 0.25 0.25 0.25 )
( 0.25 0.25 0.25 0.25 ))
(( 0.25 0.25 0.25 0.25 )
( 0.25 0.25 0.25 0.25 )
( 0.25 0.25 0.25 0.25 )
( 0.25 0.25 0.25 0.25 ))
(( 0.25 0.25 0.25 0.25 )
( 0.25 0.25 0.25 0.25 )
( 0.25 0.25 0.25 0.25 )
( 0.25 0.25 0.25 0.25 )))
((( 0.009550562 0.006179775 0.025842696 0.95842695 )
( 0.013059702 0.025186567 0.06623134 0.8955224 )
( 0.00625 0.13125 0.14375 0.71875 )
( 0.0521327 0.2985782 0.2085308 0.4407583 ))
(( 0.0033898305 0.0033898305 0.054237287 0.938983 )
( 0.006024096 0.10240964 0.14457831 0.74698794 )
( 0.01923077 0.23076923 0.28846154 0.46153846 )
( 0.032258064 0.08064516 0.22580644 0.66129035 ))
(( 0.032258064 0.032258064 0.06451613 0.87096775 )
( 0.04761905 0.04761905 0.023809524 0.88095236 )
( 0.06666667 0.06666667 0.06666667 0.8 )
( 0.16666667 0.5 0.16666667 0.16666667 ))
(( 0.25 0.25 0.25 0.25 )
( 0.25 0.25 0.25 0.25 )
( 0.25 0.25 0.25 0.25 )
( 0.25 0.25 0.25 0.25 ))
(( 0.25 0.25 0.25 0.25 )
( 0.25 0.25 0.25 0.25 )
( 0.25 0.25 0.25 0.25 )
( 0.25 0.25 0.25 0.25 ))
(( 0.020833334 0.020833334 0.020833334 0.9375 )
( 0.04761905 0.0952381 0.04761905 0.8095238 )
( 0.25 0.25 0.25 0.25 )
( 0.44444445 0.33333334 0.11111111 0.11111111 ))
(( 0.25 0.25 0.25 0.25 )
( 0.25 0.25 0.25 0.25 )
( 0.25 0.25 0.25 0.25 )
( 0.25 0.25 0.25 0.25 ))
(( 0.25 0.25 0.25 0.25 )
( 0.25 0.25 0.25 0.25 )
( 0.25 0.25 0.25 0.25 )
( 0.25 0.25 0.25 0.25 ))
(( 0.25 0.25 0.25 0.25 )
( 0.25 0.25 0.25 0.25 )
( 0.25 0.25 0.25 0.25 )
( 0.25 0.25 0.25 0.25 )))))
((((( 0.25 0.25 0.25 0.25 )
( 0.25 0.25 0.25 0.25 )
( 0.25 0.25 0.25 0.25 )
( 0.25 0.25 0.25 0.25 ))
(( 0.25 0.25 0.25 0.25 )
( 0.25 0.25 0.25 0.25 )
( 0.25 0.25 0.25 0.25 )
( 0.25 0.25 0.25 0.25 ))
(( 0.25 0.25 0.25 0.25 )
( 0.25 0.25 0.25 0.25 )
( 0.25 0.25 0.25 0.25 )
( 0.25 0.25 0.25 0.25 ))
(( 0.25 0.25 0.25 0.25 )
( 0.25 0.25 0.25 0.25 )
( 0.25 0.25 0.25 0.25 )
( 0.25 0.25 0.25 0.25 ))
(( 0.25 0.25 0.25 0.25 )
( 0.25 0.25 0.25 0.25 )
( 0.25 0.25 0.25 0.25 )
( 0.25 0.25 0.25 0.25 ))
(( 0.25 0.25 0.25 0.25 )
( 0.25 0.25 0.25 0.25 )
( 0.25 0.25 0.25 0.25 )
( 0.25 0.25 0.25 0.25 ))
(( 0.25 0.25 0.25 0.25 )
( 0.25 0.25 0.25 0.25 )
( 0.25 0.25 0.25 0.25 )
( 0.25 0.25 0.25 0.25 ))
(( 0.25 0.25 0.25 0.25 )
( 0.25 0.25 0.25 0.25 )
( 0.25 0.25 0.25 0.25 )
( 0.25 0.25 0.25 0.25 ))
(( 0.25 0.25 0.25 0.25 )
( 0.25 0.25 0.25 0.25 )
( 0.25 0.25 0.25 0.25 )
( 0.25 0.25 0.25 0.25 )))
((( 0.25 0.25 0.25 0.25 )
( 0.25 0.25 0.25 0.25 )
( 0.25 0.25 0.25 0.25 )
( 0.25 0.25 0.25 0.25 ))
(( 0.25 0.25 0.25 0.25 )
( 0.25 0.25 0.25 0.25 )
( 0.25 0.25 0.25 0.25 )
( 0.25 0.25 0.25 0.25 ))
(( 0.25 0.25 0.25 0.25 )
( 0.25 0.25 0.25 0.25 )
( 0.25 0.25 0.25 0.25 )
( 0.25 0.25 0.25 0.25 ))
(( 0.25 0.25 0.25 0.25 )
( 0.25 0.25 0.25 0.25 )
( 0.25 0.25 0.25 0.25 )
( 0.25 0.25 0.25 0.25 ))
(( 0.25 0.25 0.25 0.25 )
( 0.25 0.25 0.25 0.25 )
( 0.25 0.25 0.25 0.25 )
( 0.25 0.25 0.25 0.25 ))
(( 0.25 0.25 0.25 0.25 )
( 0.25 0.25 0.25 0.25 )
( 0.25 0.25 0.25 0.25 )
( 0.25 0.25 0.25 0.25 ))
(( 0.25 0.25 0.25 0.25 )
( 0.25 0.25 0.25 0.25 )
( 0.25 0.25 0.25 0.25 )
( 0.25 0.25 0.25 0.25 ))
(( 0.25 0.25 0.25 0.25 )
( 0.25 0.25 0.25 0.25 )
( 0.25 0.25 0.25 0.25 )
( 0.25 0.25 0.25 0.25 ))
(( 0.25 0.25 0.25 0.25 )
( 0.25 0.25 0.25 0.25 )
( 0.25 0.25 0.25 0.25 )
( 0.25 0.25 0.25 0.25 ))))
(((( 0.25 0.25 0.25 0.25 )
( 0.25 0.25 0.25 0.25 )
( 0.25 0.25 0.25 0.25 )
( 0.25 0.25 0.25 0.25 ))
(( 0.25 0.25 0.25 0.25 )
( 0.25 0.25 0.25 0.25 )
( 0.25 0.25 0.25 0.25 )
( 0.25 0.25 0.25 0.25 ))
(( 0.25 0.25 0.25 0.25 )
( 0.25 0.25 0.25 0.25 )
( 0.25 0.25 0.25 0.25 )
( 0.25 0.25 0.25 0.25 ))
(( 0.25 0.25 0.25 0.25 )
( 0.25 0.25 0.25 0.25 )
( 0.25 0.25 0.25 0.25 )
( 0.25 0.25 0.25 0.25 ))
(( 0.25 0.25 0.25 0.25 )
( 0.25 0.25 0.25 0.25 )
( 0.25 0.25 0.25 0.25 )
( 0.25 0.25 0.25 0.25 ))
(( 0.25 0.25 0.25 0.25 )
( 0.25 0.25 0.25 0.25 )
( 0.25 0.25 0.25 0.25 )
( 0.25 0.25 0.25 0.25 ))
(( 0.25 0.25 0.25 0.25 )
( 0.25 0.25 0.25 0.25 )
( 0.25 0.25 0.25 0.25 )
( 0.25 0.25 0.25 0.25 ))
(( 0.25 0.25 0.25 0.25 )
( 0.25 0.25 0.25 0.25 )
( 0.25 0.25 0.25 0.25 )
( 0.25 0.25 0.25 0.25 ))
(( 0.25 0.25 0.25 0.25 )
( 0.25 0.25 0.25 0.25 )
( 0.25 0.25 0.25 0.25 )
( 0.25 0.25 0.25 0.25 )))
((( 0.25 0.25 0.25 0.25 )
( 0.25 0.25 0.25 0.25 )
( 0.25 0.25 0.25 0.25 )
( 0.25 0.25 0.25 0.25 ))
(( 0.25 0.25 0.25 0.25 )
( 0.25 0.25 0.25 0.25 )
( 0.25 0.25 0.25 0.25 )
( 0.25 0.25 0.25 0.25 ))
(( 0.25 0.25 0.25 0.25 )
( 0.25 0.25 0.25 0.25 )
( 0.25 0.25 0.25 0.25 )
( 0.25 0.25 0.25 0.25 ))
(( 0.25 0.25 0.25 0.25 )
( 0.25 0.25 0.25 0.25 )
( 0.25 0.25 0.25 0.25 )
( 0.25 0.25 0.25 0.25 ))
(( 0.25 0.25 0.25 0.25 )
( 0.25 0.25 0.25 0.25 )
( 0.25 0.25 0.25 0.25 )
( 0.25 0.25 0.25 0.25 ))
(( 0.25 0.25 0.25 0.25 )
( 0.25 0.25 0.25 0.25 )
( 0.25 0.25 0.25 0.25 )
( 0.25 0.25 0.25 0.25 ))
(( 0.25 0.25 0.25 0.25 )
( 0.25 0.25 0.25 0.25 )
( 0.25 0.25 0.25 0.25 )
( 0.25 0.25 0.25 0.25 ))
(( 0.25 0.25 0.25 0.25 )
( 0.25 0.25 0.25 0.25 )
( 0.25 0.25 0.25 0.25 )
( 0.25 0.25 0.25 0.25 ))
(( 0.25 0.25 0.25 0.25 )
( 0.25 0.25 0.25 0.25 )
( 0.25 0.25 0.25 0.25 )
( 0.25 0.25 0.25 0.25 ))))
(((( 0.25 0.25 0.25 0.25 )
( 0.25 0.25 0.25 0.25 )
( 0.25 0.25 0.25 0.25 )
( 0.25 0.25 0.25 0.25 ))
(( 0.25 0.25 0.25 0.25 )
( 0.25 0.25 0.25 0.25 )
( 0.25 0.25 0.25 0.25 )
( 0.25 0.25 0.25 0.25 ))
(( 0.25 0.25 0.25 0.25 )
( 0.25 0.25 0.25 0.25 )
( 0.25 0.25 0.25 0.25 )
( 0.25 0.25 0.25 0.25 ))
(( 0.25 0.25 0.25 0.25 )
( 0.25 0.25 0.25 0.25 )
( 0.25 0.25 0.25 0.25 )
( 0.25 0.25 0.25 0.25 ))
(( 0.25 0.25 0.25 0.25 )
( 0.25 0.25 0.25 0.25 )
( 0.25 0.25 0.25 0.25 )
( 0.25 0.25 0.25 0.25 ))
(( 0.25 0.25 0.25 0.25 )
( 0.25 0.25 0.25 0.25 )
( 0.25 0.25 0.25 0.25 )
( 0.25 0.25 0.25 0.25 ))
(( 0.25 0.25 0.25 0.25 )
( 0.25 0.25 0.25 0.25 )
( 0.25 0.25 0.25 0.25 )
( 0.25 0.25 0.25 0.25 ))
(( 0.25 0.25 0.25 0.25 )
( 0.25 0.25 0.25 0.25 )
( 0.25 0.25 0.25 0.25 )
( 0.25 0.25 0.25 0.25 ))
(( 0.25 0.25 0.25 0.25 )
( 0.25 0.25 0.25 0.25 )
( 0.25 0.25 0.25 0.25 )
( 0.25 0.25 0.25 0.25 )))
((( 0.04 0.04 0.04 0.88 )
( 0.25 0.25 0.25 0.25 )
( 0.25 0.25 0.25 0.25 )
( 0.25 0.25 0.25 0.25 ))
(( 0.25 0.25 0.25 0.25 )
( 0.1 0.1 0.1 0.7 )
( 0.11111111 0.11111111 0.11111111 0.6666667 )
( 0.25 0.25 0.25 0.25 ))
(( 0.25 0.25 0.25 0.25 )
( 0.25 0.25 0.25 0.25 )
( 0.25 0.25 0.25 0.25 )
( 0.25 0.25 0.25 0.25 ))
(( 0.25 0.25 0.25 0.25 )
( 0.25 0.25 0.25 0.25 )
( 0.25 0.25 0.25 0.25 )
( 0.25 0.25 0.25 0.25 ))
(( 0.25 0.25 0.25 0.25 )
( 0.25 0.25 0.25 0.25 )
( 0.25 0.25 0.25 0.25 )
( 0.25 0.25 0.25 0.25 ))
(( 0.25 0.25 0.25 0.25 )
( 0.25 0.25 0.25 0.25 )
( 0.25 0.25 0.25 0.25 )
( 0.25 0.25 0.25 0.25 ))
(( 0.25 0.25 0.25 0.25 )
( 0.25 0.25 0.25 0.25 )
( 0.25 0.25 0.25 0.25 )
( 0.25 0.25 0.25 0.25 ))
(( 0.25 0.25 0.25 0.25 )
( 0.25 0.25 0.25 0.25 )
( 0.25 0.25 0.25 0.25 )
( 0.25 0.25 0.25 0.25 ))
(( 0.25 0.25 0.25 0.25 )
( 0.25 0.25 0.25 0.25 )
( 0.25 0.25 0.25 0.25 )
( 0.25 0.25 0.25 0.25 ))))
(((( 0.25 0.25 0.25 0.25 )
( 0.25 0.25 0.25 0.25 )
( 0.25 0.25 0.25 0.25 )
( 0.05 0.7 0.2 0.05 ))
(( 0.25 0.25 0.25 0.25 )
( 0.09090909 0.09090909 0.09090909 0.72727275 )
( 0.25 0.25 0.25 0.25 )
( 0.25 0.25 0.25 0.25 ))
(( 0.25 0.25 0.25 0.25 )
( 0.25 0.25 0.25 0.25 )
( 0.25 0.25 0.25 0.25 )
( 0.25 0.25 0.25 0.25 ))
(( 0.25 0.25 0.25 0.25 )
( 0.25 0.25 0.25 0.25 )
( 0.25 0.25 0.25 0.25 )
( 0.25 0.25 0.25 0.25 ))
(( 0.25 0.25 0.25 0.25 )
( 0.25 0.25 0.25 0.25 )
( 0.25 0.25 0.25 0.25 )
( 0.25 0.25 0.25 0.25 ))
(( 0.25 0.25 0.25 0.25 )
( 0.25 0.25 0.25 0.25 )
( 0.25 0.25 0.25 0.25 )
( 0.25 0.25 0.25 0.25 ))
(( 0.25 0.25 0.25 0.25 )
( 0.25 0.25 0.25 0.25 )
( 0.25 0.25 0.25 0.25 )
( 0.25 0.25 0.25 0.25 ))
(( 0.25 0.25 0.25 0.25 )
( 0.25 0.25 0.25 0.25 )
( 0.25 0.25 0.25 0.25 )
( 0.25 0.25 0.25 0.25 ))
(( 0.25 0.25 0.25 0.25 )
( 0.25 0.25 0.25 0.25 )
( 0.25 0.25 0.25 0.25 )
( 0.25 0.25 0.25 0.25 )))
((( 0.2 0.2 0.2 0.4 )
( 0.16666667 0.16666667 0.16666667 0.5 )
( 0.083333336 0.083333336 0.75 0.083333336 )
( 0.25 0.25 0.25 0.25 ))
(( 0.25 0.25 0.25 0.25 )
( 0.25 0.25 0.25 0.25 )
( 0.25 0.25 0.25 0.25 )
( 0.25 0.25 0.25 0.25 ))
(( 0.25 0.25 0.25 0.25 )
( 0.25 0.25 0.25 0.25 )
( 0.25 0.25 0.25 0.25 )
( 0.25 0.25 0.25 0.25 ))
(( 0.25 0.25 0.25 0.25 )
( 0.25 0.25 0.25 0.25 )
( 0.25 0.25 0.25 0.25 )
( 0.25 0.25 0.25 0.25 ))
(( 0.25 0.25 0.25 0.25 )
( 0.25 0.25 0.25 0.25 )
( 0.25 0.25 0.25 0.25 )
( 0.25 0.25 0.25 0.25 ))
(( 0.25 0.25 0.25 0.25 )
( 0.25 0.25 0.25 0.25 )
( 0.25 0.25 0.25 0.25 )
( 0.25 0.25 0.25 0.25 ))
(( 0.25 0.25 0.25 0.25 )
( 0.25 0.25 0.25 0.25 )
( 0.25 0.25 0.25 0.25 )
( 0.25 0.25 0.25 0.25 ))
(( 0.25 0.25 0.25 0.25 )
( 0.25 0.25 0.25 0.25 )
( 0.25 0.25 0.25 0.25 )
( 0.25 0.25 0.25 0.25 ))
(( 0.25 0.25 0.25 0.25 )
( 0.25 0.25 0.25 0.25 )
( 0.25 0.25 0.25 0.25 )
( 0.25 0.25 0.25 0.25 ))))
(((( 0.25 0.25 0.25 0.25 )
( 0.2 0.2 0.2 0.4 )
( 0.25 0.25 0.25 0.25 )
( 0.25 0.25 0.25 0.25 ))
(( 0.25 0.25 0.25 0.25 )
( 0.25 0.25 0.25 0.25 )
( 0.25 0.25 0.25 0.25 )
( 0.25 0.25 0.25 0.25 ))
(( 0.25 0.25 0.25 0.25 )
( 0.25 0.25 0.25 0.25 )
( 0.25 0.25 0.25 0.25 )
( 0.25 0.25 0.25 0.25 ))
(( 0.25 0.25 0.25 0.25 )
( 0.25 0.25 0.25 0.25 )
( 0.25 0.25 0.25 0.25 )
( 0.25 0.25 0.25 0.25 ))
(( 0.25 0.25 0.25 0.25 )
( 0.25 0.25 0.25 0.25 )
( 0.25 0.25 0.25 0.25 )
( 0.25 0.25 0.25 0.25 ))
(( 0.25 0.25 0.25 0.25 )
( 0.25 0.25 0.25 0.25 )
( 0.25 0.25 0.25 0.25 )
( 0.25 0.25 0.25 0.25 ))
(( 0.25 0.25 0.25 0.25 )
( 0.25 0.25 0.25 0.25 )
( 0.25 0.25 0.25 0.25 )
( 0.25 0.25 0.25 0.25 ))
(( 0.25 0.25 0.25 0.25 )
( 0.25 0.25 0.25 0.25 )
( 0.25 0.25 0.25 0.25 )
( 0.25 0.25 0.25 0.25 ))
(( 0.25 0.25 0.25 0.25 )
( 0.25 0.25 0.25 0.25 )
( 0.25 0.25 0.25 0.25 )
( 0.25 0.25 0.25 0.25 )))
((( 0.041666668 0.041666668 0.041666668 0.875 )
( 0.032258064 0.22580644 0.032258064 0.7096774 )
( 0.25 0.25 0.25 0.25 )
( 0.16666667 0.5 0.16666667 0.16666667 ))
(( 0.25 0.25 0.25 0.25 )
( 0.25 0.25 0.25 0.25 )
( 0.25 0.25 0.25 0.25 )
( 0.25 0.25 0.25 0.25 ))
(( 0.25 0.25 0.25 0.25 )
( 0.25 0.25 0.25 0.25 )
( 0.25 0.25 0.25 0.25 )
( 0.25 0.25 0.25 0.25 ))
(( 0.25 0.25 0.25 0.25 )
( 0.25 0.25 0.25 0.25 )
( 0.25 0.25 0.25 0.25 )
( 0.25 0.25 0.25 0.25 ))
(( 0.25 0.25 0.25 0.25 )
( 0.25 0.25 0.25 0.25 )
( 0.25 0.25 0.25 0.25 )
( 0.25 0.25 0.25 0.25 ))
(( 0.11111111 0.11111111 0.11111111 0.6666667 )
( 0.25 0.25 0.25 0.25 )
( 0.25 0.25 0.25 0.25 )
( 0.25 0.25 0.25 0.25 ))
(( 0.25 0.25 0.25 0.25 )
( 0.25 0.25 0.25 0.25 )
( 0.25 0.25 0.25 0.25 )
( 0.25 0.25 0.25 0.25 ))
(( 0.25 0.25 0.25 0.25 )
( 0.25 0.25 0.25 0.25 )
( 0.25 0.25 0.25 0.25 )
( 0.25 0.25 0.25 0.25 ))
(( 0.25 0.25 0.25 0.25 )
( 0.25 0.25 0.25 0.25 )
( 0.25 0.25 0.25 0.25 )
( 0.25 0.25 0.25 0.25 )))))))
((((((( 0.04276316 0.35197368 0.34210527 0.2631579 )
( 0.06896552 0.1724138 0.22988506 0.52873564 )
( 0.32000002 0.120000005 0.48000002 0.080000006 )
( 0.375 0.18055555 0.2638889 0.18055555 ))
(( 0.05263158 0.45614034 0.14035088 0.3508772 )
( 0.5714286 0.14285715 0.14285715 0.14285715 )
( 0.21428572 0.64285713 0.071428575 0.071428575 )
( 0.2 0.2 0.2 0.4 ))
(( 0.16666667 0.16666667 0.33333334 0.33333334 )
( 0.090909086 0.7272727 0.090909086 0.090909086 )
( 0.45454547 0.18181819 0.27272728 0.09090909 )
( 0.25 0.25 0.25 0.25 ))
(( 0.25 0.25 0.25 0.25 )
( 0.25 0.25 0.25 0.25 )
( 0.9 0.033333335 0.033333335 0.033333335 )
( 0.25 0.25 0.25 0.25 ))
(( 0.25 0.25 0.25 0.25 )
( 0.25 0.25 0.25 0.25 )
( 0.25 0.25 0.25 0.25 )
( 0.25 0.25 0.25 0.25 ))
(( 0.16666666 0.5555555 0.16666666 0.1111111 )
( 0.7777778 0.14814815 0.037037037 0.037037037 )
( 0.25 0.25 0.25 0.25 )
( 0.4 0.2 0.2 0.2 ))
(( 0.25 0.25 0.25 0.25 )
( 0.25 0.25 0.25 0.25 )
( 0.25 0.25 0.25 0.25 )
( 0.25 0.25 0.25 0.25 ))
(( 0.071428575 0.78571427 0.071428575 0.071428575 )
( 0.25 0.25 0.25 0.25 )
( 0.25 0.25 0.25 0.25 )
( 0.25 0.25 0.25 0.25 ))
(( 0.25 0.25 0.25 0.25 )
( 0.25 0.25 0.25 0.25 )
( 0.25 0.25 0.25 0.25 )
( 0.25 0.25 0.25 0.25 )))
((( 0.12755905 0.22834645 0.24251969 0.4015748 )
( 0.16895874 0.35952848 0.18664047 0.2848723 )
( 0.392 0.488 0.112 0.008 )
( 0.16949153 0.3898305 0.24293785 0.19774011 ))
(( 0.15714286 0.32857144 0.22857143 0.2857143 )
( 0.12903225 0.38709676 0.14516129 0.33870968 )
( 0.38709682 0.4193549 0.16129033 0.032258067 )
( 0.44 0.2 0.1 0.26 ))
(( 0.027027028 0.3243243 0.1891892 0.45945945 )
( 0.22222222 0.2777778 0.44444445 0.055555556 )
( 0.25 0.25 0.25 0.25 )
( 0.25 0.25 0.25 0.25 ))
(( 0.25 0.25 0.25 0.25 )
( 0.5 0.16666667 0.16666667 0.16666667 )
( 0.25 0.25 0.25 0.25 )
( 0.25 0.25 0.25 0.25 ))
(( 0.25 0.25 0.25 0.25 )
( 0.25 0.25 0.25 0.25 )
( 0.25 0.25 0.25 0.25 )
( 0.25 0.25 0.25 0.25 ))
(( 0.31944445 0.083333336 0.16666667 0.43055555 )
( 0.7058824 0.1764706 0.05882353 0.05882353 )
( 0.25 0.25 0.25 0.25 )
( 0.07692308 0.6923077 0.15384616 0.07692308 ))
(( 0.71428573 0.14285715 0.071428575 0.071428575 )
( 0.25 0.25 0.25 0.25 )
( 0.25 0.25 0.25 0.25 )
( 0.25 0.25 0.25 0.25 ))
(( 0.25 0.25 0.25 0.25 )
( 0.25 0.25 0.25 0.25 )
( 0.25 0.25 0.25 0.25 )
( 0.25 0.25 0.25 0.25 ))
(( 0.25 0.25 0.25 0.25 )
( 0.25 0.25 0.25 0.25 )
( 0.25 0.25 0.25 0.25 )
( 0.25 0.25 0.25 0.25 ))))
(((( 0.46153846 0.5 0.025641026 0.012820513 )
( 0.54304636 0.39072847 0.046357617 0.01986755 )
( 0.65384614 0.1923077 0.13461539 0.01923077 )
( 0.13333334 0.73333335 0.06666667 0.06666667 ))
(( 0.4 0.55 0.025 0.025 )
( 0.78571427 0.071428575 0.071428575 0.071428575 )
( 0.86538464 0.09615385 0.01923077 0.01923077 )
( 0.78571427 0.071428575 0.071428575 0.071428575 ))
(( 0.25 0.25 0.25 0.25 )
( 0.25 0.25 0.25 0.25 )
( 0.25 0.25 0.25 0.25 )
( 0.75000006 0.08333334 0.08333334 0.08333334 ))
(( 0.25 0.5 0.125 0.125 )
( 0.25 0.25 0.25 0.25 )
( 0.25 0.25 0.25 0.25 )
( 0.25 0.25 0.25 0.25 ))
(( 0.25 0.25 0.25 0.25 )
( 0.25 0.25 0.25 0.25 )
( 0.25 0.25 0.25 0.25 )
( 0.25 0.25 0.25 0.25 ))
(( 0.25 0.25 0.25 0.25 )
( 0.9 0.033333335 0.033333335 0.033333335 )
( 0.25 0.25 0.25 0.25 )
( 0.5714286 0.14285715 0.14285715 0.14285715 ))
(( 0.25 0.25 0.25 0.25 )
( 0.25 0.25 0.25 0.25 )
( 0.25 0.25 0.25 0.25 )
( 0.25 0.25 0.25 0.25 ))
(( 0.25 0.25 0.25 0.25 )
( 0.25 0.25 0.25 0.25 )
( 0.25 0.25 0.25 0.25 )
( 0.25 0.25 0.25 0.25 ))
(( 0.25 0.25 0.25 0.25 )
( 0.25 0.25 0.25 0.25 )
( 0.25 0.25 0.25 0.25 )
( 0.25 0.25 0.25 0.25 )))
((( 0.5609756 0.31219512 0.12195122 0.004878049 )
( 0.44635195 0.44206008 0.051502146 0.060085837 )
( 0.4339623 0.4339623 0.11320756 0.018867927 )
( 0.65384614 0.30769232 0.01923077 0.01923077 ))
(( 0.26923078 0.15384616 0.34615386 0.23076923 )
( 0.39130434 0.26086956 0.19565217 0.1521739 )
( 0.7272727 0.090909086 0.090909086 0.090909086 )
( 0.25 0.25 0.25 0.25 ))
(( 0.16666667 0.6666667 0.083333336 0.083333336 )
( 0.90909094 0.030303031 0.030303031 0.030303031 )
( 0.9 0.033333335 0.033333335 0.033333335 )
( 0.25 0.25 0.25 0.25 ))
(( 0.25 0.25 0.25 0.25 )
( 0.8333333 0.055555556 0.055555556 0.055555556 )
( 0.59999996 0.06666666 0.26666665 0.06666666 )
( 0.25 0.25 0.25 0.25 ))
(( 0.25 0.25 0.25 0.25 )
( 0.25 0.25 0.25 0.25 )
( 0.25 0.25 0.25 0.25 )
( 0.25 0.25 0.25 0.25 ))
(( 0.7058824 0.11764706 0.05882353 0.11764706 )
( 0.36363637 0.5151515 0.09090909 0.030303031 )
( 0.7692308 0.07692308 0.07692308 0.07692308 )
( 0.7058824 0.1764706 0.05882353 0.05882353 ))
(( 0.7272727 0.090909086 0.090909086 0.090909086 )
( 0.25 0.25 0.25 0.25 )
( 0.625 0.125 0.125 0.125 )
( 0.25 0.25 0.25 0.25 ))
(( 0.25 0.25 0.25 0.25 )
( 0.25 0.25 0.25 0.25 )
( 0.25 0.25 0.25 0.25 )
( 0.25 0.25 0.25 0.25 ))
(( 0.25 0.25 0.25 0.25 )
( 0.25 0.25 0.25 0.25 )
( 0.25 0.25 0.25 0.25 )
( 0.25 0.25 0.25 0.25 ))))
(((( 0.041237112 0.082474224 0.41237113 0.46391752 )
( 0.022222223 0.096296296 0.2 0.6814815 )
( 0.057142857 0.74285716 0.14285715 0.057142857 )
( 0.2037037 0.6111111 0.16666667 0.018518519 ))
(( 0.040816326 0.3265306 0.24489796 0.3877551 )
( 0.022222223 0.06666667 0.022222223 0.8888889 )
( 0.04761905 0.33333334 0.2857143 0.33333334 )
( 0.23076923 0.61538464 0.07692308 0.07692308 ))
(( 0.25 0.25 0.25 0.25 )
( 0.2 0.2 0.2 0.4 )
( 0.25 0.25 0.25 0.25 )
( 0.25 0.25 0.25 0.25 ))
(( 0.25 0.25 0.25 0.25 )
( 0.05555555 0.5555555 0.3333333 0.05555555 )
( 0.25 0.25 0.25 0.25 )
( 0.25 0.25 0.25 0.25 ))
(( 0.25 0.25 0.25 0.25 )
( 0.25 0.25 0.25 0.25 )
( 0.125 0.75 0.0625 0.0625 )
( 0.25 0.25 0.25 0.25 ))
(( 0.25 0.25 0.25 0.25 )
( 0.25 0.25 0.25 0.25 )
( 0.25 0.25 0.25 0.25 )
( 0.25 0.25 0.25 0.25 ))
(( 0.25 0.25 0.25 0.25 )
( 0.25 0.25 0.25 0.25 )
( 0.25 0.25 0.25 0.25 )
( 0.25 0.25 0.25 0.25 ))
(( 0.25 0.25 0.25 0.25 )
( 0.25 0.25 0.25 0.25 )
( 0.25 0.25 0.25 0.25 )
( 0.25 0.25 0.25 0.25 ))
(( 0.25 0.25 0.25 0.25 )
( 0.25 0.25 0.25 0.25 )
( 0.25 0.25 0.25 0.25 )
( 0.25 0.25 0.25 0.25 )))
((( 0.014038877 0.03887689 0.056155507 0.89092875 )
( 0.013274336 0.03539823 0.064896755 0.8864307 )
( 0.014652015 0.25641027 0.2930403 0.43589744 )
( 0.21777777 0.36444443 0.20888889 0.20888889 ))
(( 0.005988024 0.005988024 0.011976048 0.97604793 )
( 0.0034722222 0.0625 0.03125 0.9027778 )
( 0.013513514 0.44594595 0.27027026 0.27027026 )
( 0.018181818 0.4181818 0.2 0.36363637 ))
(( 0.07692308 0.07692308 0.23076923 0.61538464 )
( 0.07142857 0.21428569 0.57142854 0.14285713 )
( 0.11111111 0.11111111 0.33333334 0.44444445 )
( 0.083333336 0.083333336 0.083333336 0.75 ))
(( 0.25 0.25 0.25 0.25 )
( 0.25 0.25 0.25 0.25 )
( 0.25 0.25 0.25 0.25 )
( 0.25 0.25 0.25 0.25 ))
(( 0.25 0.25 0.25 0.25 )
( 0.25 0.25 0.25 0.25 )
( 0.25 0.25 0.25 0.25 )
( 0.25 0.25 0.25 0.25 ))
(( 0.045454547 0.18181819 0.09090909 0.6818182 )
( 0.057692308 0.15384616 0.03846154 0.75 )
( 0.41666666 0.16666667 0.083333336 0.33333334 )
( 0.52000004 0.20000002 0.20000002 0.080000006 ))
(( 0.25 0.25 0.25 0.25 )
( 0.25 0.25 0.25 0.25 )
( 0.25 0.25 0.25 0.25 )
( 0.25 0.25 0.25 0.25 ))
(( 0.25 0.25 0.25 0.25 )
( 0.25 0.25 0.25 0.25 )
( 0.25 0.25 0.25 0.25 )
( 0.25 0.25 0.25 0.25 ))
(( 0.25 0.25 0.25 0.25 )
( 0.25 0.25 0.25 0.25 )
( 0.25 0.25 0.25 0.25 )
( 0.25 0.25 0.25 0.25 ))))
(((( 0.02283105 0.00456621 0.15068494 0.82191783 )
( 0.0046296297 0.055555556 0.083333336 0.8564815 )
( 0.009708738 0.33009708 0.2815534 0.37864077 )
( 0.11111111 0.44444445 0.19753087 0.24691358 ))
(( 0.055555556 0.24074075 0.018518519 0.6851852 )
( 0.014084507 0.18309858 0.18309858 0.6197183 )
( 0.01724138 0.3275862 0.10344828 0.55172414 )
( 0.5 0.03125 0.03125 0.4375 ))
(( 0.25 0.25 0.25 0.25 )
( 0.05263158 0.42105263 0.47368422 0.05263158 )
( 0.07692308 0.61538464 0.23076923 0.07692308 )
( 0.125 0.125 0.125 0.625 ))
(( 0.25 0.25 0.25 0.25 )
( 0.25 0.25 0.25 0.25 )
( 0.25 0.25 0.25 0.25 )
( 0.25 0.25 0.25 0.25 ))
(( 0.25 0.25 0.25 0.25 )
( 0.25 0.25 0.25 0.25 )
( 0.25 0.25 0.25 0.25 )
( 0.25 0.25 0.25 0.25 ))
(( 0.14285715 0.14285715 0.2857143 0.42857143 )
( 0.16666667 0.16666667 0.16666667 0.5 )
( 0.25 0.25 0.25 0.25 )
( 0.05 0.85 0.05 0.05 ))
(( 0.25 0.25 0.25 0.25 )
( 0.25 0.25 0.25 0.25 )
( 0.25 0.25 0.25 0.25 )
( 0.25 0.25 0.25 0.25 ))
(( 0.25 0.25 0.25 0.25 )
( 0.25 0.25 0.25 0.25 )
( 0.25 0.25 0.25 0.25 )
( 0.25 0.25 0.25 0.25 ))
(( 0.25 0.25 0.25 0.25 )
( 0.25 0.25 0.25 0.25 )
( 0.25 0.25 0.25 0.25 )
( 0.25 0.25 0.25 0.25 )))
((( 0.030050084 0.049248748 0.061769616 0.85893154 )
( 0.005291005 0.06349207 0.055555556 0.8756614 )
( 0.01183432 0.20414202 0.33136094 0.45266274 )
( 0.05957447 0.3148936 0.2851064 0.34042552 ))
(( 0.019305019 0.0077220076 0.1003861 0.87258685 )
( 0.006849315 0.14383562 0.15753424 0.6917808 )
( 0.007936508 0.2857143 0.35714287 0.34920636 )
( 0.1754386 0.22807017 0.10526316 0.49122807 ))
(( 0.11111111 0.11111111 0.11111111 0.6666667 )
( 0.06666667 0.06666667 0.26666668 0.6 )
( 0.071428575 0.2857143 0.35714287 0.2857143 )
( 0.375 0.125 0.25 0.25 ))
(( 0.25 0.25 0.25 0.25 )
( 0.25 0.25 0.25 0.25 )
( 0.25 0.25 0.25 0.25 )
( 0.25 0.25 0.25 0.25 ))
(( 0.25 0.25 0.25 0.25 )
( 0.25 0.25 0.25 0.25 )
( 0.25 0.25 0.25 0.25 )
( 0.25 0.25 0.25 0.25 ))
(( 0.014084507 0.09859155 0.4084507 0.47887325 )
( 0.013333334 0.013333334 0.14666666 0.82666665 )
( 0.1 0.1 0.7 0.1 )
( 0.11111111 0.11111111 0.6666667 0.11111111 ))
(( 0.25 0.25 0.25 0.25 )
( 0.25 0.25 0.25 0.25 )
( 0.25 0.25 0.25 0.25 )
( 0.25 0.25 0.25 0.25 ))
(( 0.25 0.25 0.25 0.25 )
( 0.25 0.25 0.25 0.25 )
( 0.25 0.25 0.25 0.25 )
( 0.25 0.25 0.25 0.25 ))
(( 0.25 0.25 0.25 0.25 )
( 0.25 0.25 0.25 0.25 )
( 0.25 0.25 0.25 0.25 )
( 0.25 0.25 0.25 0.25 ))))
(((( 0.0093896715 0.02347418 0.02347418 0.943662 )
( 0.005586592 0.083798885 0.061452515 0.849162 )
( 0.0952381 0.5595238 0.1904762 0.15476191 )
( 0.07317073 0.31707317 0.09756097 0.5121951 ))
(( 0.02631579 0.05263158 0.039473683 0.8815789 )
( 0.020408163 0.020408163 0.020408163 0.93877554 )
( 0.041666668 0.125 0.7916667 0.041666668 )
( 0.2 0.5 0.1 0.2 ))
(( 0.7 0.1 0.1 0.1 )
( 0.125 0.125 0.125 0.625 )
( 0.25 0.25 0.25 0.25 )
( 0.25 0.25 0.25 0.25 ))
(( 0.25 0.25 0.25 0.25 )
( 0.25 0.25 0.25 0.25 )
( 0.25 0.25 0.25 0.25 )
( 0.25 0.25 0.25 0.25 ))
(( 0.25 0.25 0.25 0.25 )
( 0.25 0.25 0.25 0.25 )
( 0.25 0.25 0.25 0.25 )
( 0.25 0.25 0.25 0.25 ))
(( 0.25 0.25 0.25 0.25 )
( 0.25 0.25 0.25 0.25 )
( 0.25 0.25 0.25 0.25 )
( 0.33333334 0.16666667 0.16666667 0.33333334 ))
(( 0.25 0.25 0.25 0.25 )
( 0.25 0.25 0.25 0.25 )
( 0.25 0.25 0.25 0.25 )
( 0.25 0.25 0.25 0.25 ))
(( 0.25 0.25 0.25 0.25 )
( 0.25 0.25 0.25 0.25 )
( 0.25 0.25 0.25 0.25 )
( 0.25 0.25 0.25 0.25 ))
(( 0.25 0.25 0.25 0.25 )
( 0.25 0.25 0.25 0.25 )
( 0.25 0.25 0.25 0.25 )
( 0.25 0.25 0.25 0.25 )))
((( 0.038272817 0.012757606 0.016192345 0.9327772 )
( 0.00373599 0.02366127 0.0373599 0.93524283 )
( 0.0033670033 0.19865319 0.24242425 0.5555556 )
( 0.073446326 0.23728813 0.118644066 0.5706215 ))
(( 0.013927577 0.016713092 0.058495823 0.9108635 )
( 0.006849315 0.16438356 0.05479452 0.77397263 )
( 0.012048192 0.060240965 0.21686748 0.7108434 )
( 0.021276595 0.17021276 0.021276595 0.78723407 ))
(( 0.016949153 0.016949153 0.050847456 0.91525424 )
( 0.018867925 0.056603774 0.03773585 0.8867925 )
( 0.03125 0.125 0.5625 0.28125 )
( 0.25 0.25 0.25 0.25 ))
(( 0.25 0.25 0.25 0.25 )
( 0.25 0.25 0.25 0.25 )
( 0.25 0.25 0.25 0.25 )
( 0.25 0.25 0.25 0.25 ))
(( 0.25 0.25 0.25 0.25 )
( 0.25 0.25 0.25 0.25 )
( 0.25 0.25 0.25 0.25 )
( 0.25 0.25 0.25 0.25 ))
(( 0.016949153 0.016949153 0.016949153 0.9491525 )
( 0.0625 0.0625 0.0625 0.8125 )
( 0.25 0.25 0.25 0.25 )
( 0.11111111 0.33333334 0.22222222 0.33333334 ))
(( 0.25 0.25 0.25 0.25 )
( 0.25 0.25 0.25 0.25 )
( 0.25 0.25 0.25 0.25 )
( 0.25 0.25 0.25 0.25 ))
(( 0.25 0.25 0.25 0.25 )
( 0.25 0.25 0.25 0.25 )
( 0.25 0.25 0.25 0.25 )
( 0.25 0.25 0.25 0.25 ))
(( 0.25 0.25 0.25 0.25 )
( 0.25 0.25 0.25 0.25 )
( 0.25 0.25 0.25 0.25 )
( 0.25 0.25 0.25 0.25 )))))
((((( 0.25 0.25 0.25 0.25 )
( 0.25 0.25 0.25 0.25 )
( 0.25 0.25 0.25 0.25 )
( 0.25 0.25 0.25 0.25 ))
(( 0.25 0.25 0.25 0.25 )
( 0.25 0.25 0.25 0.25 )
( 0.25 0.25 0.25 0.25 )
( 0.25 0.25 0.25 0.25 ))
(( 0.25 0.25 0.25 0.25 )
( 0.25 0.25 0.25 0.25 )
( 0.25 0.25 0.25 0.25 )
( 0.25 0.25 0.25 0.25 ))
(( 0.25 0.25 0.25 0.25 )
( 0.25 0.25 0.25 0.25 )
( 0.25 0.25 0.25 0.25 )
( 0.25 0.25 0.25 0.25 ))
(( 0.25 0.25 0.25 0.25 )
( 0.25 0.25 0.25 0.25 )
( 0.25 0.25 0.25 0.25 )
( 0.25 0.25 0.25 0.25 ))
(( 0.25 0.25 0.25 0.25 )
( 0.25 0.25 0.25 0.25 )
( 0.25 0.25 0.25 0.25 )
( 0.25 0.25 0.25 0.25 ))
(( 0.25 0.25 0.25 0.25 )
( 0.25 0.25 0.25 0.25 )
( 0.25 0.25 0.25 0.25 )
( 0.25 0.25 0.25 0.25 ))
(( 0.25 0.25 0.25 0.25 )
( 0.25 0.25 0.25 0.25 )
( 0.25 0.25 0.25 0.25 )
( 0.25 0.25 0.25 0.25 ))
(( 0.25 0.25 0.25 0.25 )
( 0.25 0.25 0.25 0.25 )
( 0.25 0.25 0.25 0.25 )
( 0.25 0.25 0.25 0.25 )))
((( 0.25 0.25 0.25 0.25 )
( 0.25 0.25 0.25 0.25 )
( 0.25 0.25 0.25 0.25 )
( 0.25 0.25 0.25 0.25 ))
(( 0.25 0.25 0.25 0.25 )
( 0.25 0.25 0.25 0.25 )
( 0.25 0.25 0.25 0.25 )
( 0.25 0.25 0.25 0.25 ))
(( 0.25 0.25 0.25 0.25 )
( 0.25 0.25 0.25 0.25 )
( 0.25 0.25 0.25 0.25 )
( 0.25 0.25 0.25 0.25 ))
(( 0.25 0.25 0.25 0.25 )
( 0.25 0.25 0.25 0.25 )
( 0.25 0.25 0.25 0.25 )
( 0.25 0.25 0.25 0.25 ))
(( 0.25 0.25 0.25 0.25 )
( 0.25 0.25 0.25 0.25 )
( 0.25 0.25 0.25 0.25 )
( 0.25 0.25 0.25 0.25 ))
(( 0.25 0.25 0.25 0.25 )
( 0.25 0.25 0.25 0.25 )
( 0.25 0.25 0.25 0.25 )
( 0.25 0.25 0.25 0.25 ))
(( 0.25 0.25 0.25 0.25 )
( 0.25 0.25 0.25 0.25 )
( 0.25 0.25 0.25 0.25 )
( 0.25 0.25 0.25 0.25 ))
(( 0.25 0.25 0.25 0.25 )
( 0.25 0.25 0.25 0.25 )
( 0.25 0.25 0.25 0.25 )
( 0.25 0.25 0.25 0.25 ))
(( 0.25 0.25 0.25 0.25 )
( 0.25 0.25 0.25 0.25 )
( 0.25 0.25 0.25 0.25 )
( 0.25 0.25 0.25 0.25 ))))
(((( 0.25 0.25 0.25 0.25 )
( 0.25 0.25 0.25 0.25 )
( 0.25 0.25 0.25 0.25 )
( 0.25 0.25 0.25 0.25 ))
(( 0.25 0.25 0.25 0.25 )
( 0.25 0.25 0.25 0.25 )
( 0.25 0.25 0.25 0.25 )
( 0.25 0.25 0.25 0.25 ))
(( 0.25 0.25 0.25 0.25 )
( 0.25 0.25 0.25 0.25 )
( 0.25 0.25 0.25 0.25 )
( 0.25 0.25 0.25 0.25 ))
(( 0.25 0.25 0.25 0.25 )
